{"learner":{"attributes":{"scikit_learn":"{\"_estimator_type\": \"classifier\"}"},"feature_names":[],"feature_types":[],"gradient_booster":{"model":{"cats":{"enc":[],"feature_segments":[],"sorted_idx":[]},"gbtree_model_param":{"num_parallel_tree":"1","num_trees":"300"},"iteration_indptr":[0,1,2,3,4,5,6,7,8,9,10,11,12,13,14,15,16,17,18,19,20,21,22,23,24,25,26,27,28,29,30,31,32,33,34,35,36,37,38,39,40,41,42,43,44,45,46,47,48,49,50,51,52,53,54,55,56,57,58,59,60,61,62,63,64,65,66,67,68,69,70,71,72,73,74,75,76,77,78,79,80,81,82,83,84,85,86,87,88,89,90,91,92,93,94,95,96,97,98,99,100,101,102,103,104,105,106,107,108,109,110,111,112,113,114,115,116,117,118,119,120,121,122,123,124,125,126,127,128,129,130,131,132,133,134,135,136,137,138,139,140,141,142,143,144,145,146,147,148,149,150,151,152,153,154,155,156,157,158,159,160,161,162,163,164,165,166,167,168,169,170,171,172,173,174,175,176,177,178,179,180,181,182,183,184,185,186,187,188,189,190,191,192,193,194,195,196,197,198,199,200,201,202,203,204,205,206,207,208,209,210,211,212,213,214,215,216,217,218,219,220,221,222,223,224,225,226,227,228,229,230,231,232,233,234,235,236,237,238,239,240,241,242,243,244,245,246,247,248,249,250,251,252,253,254,255,256,257,258,259,260,261,262,263,264,265,266,267,268,269,270,271,272,273,274,275,276,277,278,279,280,281,282,283,284,285,286,287,288,289,290,291,292,293,294,295,296,297,298,299,300],"tree_info":[0,0,0,0,0,0,0,0,0,0,0,0,0,0,0,0,0,0,0,0,0,0,0,0,0,0,0,0,0,0,0,0,0,0,0,0,0,0,0,0,0,0,0,0,0,0,0,0,0,0,0,0,0,0,0,0,0,0,0,0,0,0,0,0,0,0,0,0,0,0,0,0,0,0,0,0,0,0,0,0,0,0,0,0,0,0,0,0,0,0,0,0,0,0,0,0,0,0,0,0,0,0,0,0,0,0,0,0,0,0,0,0,0,0,0,0,0,0,0,0,0,0,0,0,0,0,0,0,0,0,0,0,0,0,0,0,0,0,0,0,0,0,0,0,0,0,0,0,0,0,0,0,0,0,0,0,0,0,0,0,0,0,0,0,0,0,0,0,0,0,0,0,0,0,0,0,0,0,0,0,0,0,0,0,0,0,0,0,0,0,0,0,0,0,0,0,0,0,0,0,0,0,0,0,0,0,0,0,0,0,0,0,0,0,0,0,0,0,0,0,0,0,0,0,0,0,0,0,0,0,0,0,0,0,0,0,0,0,0,0,0,0,0,0,0,0,0,0,0,0,0,0,0,0,0,0,0,0,0,0,0,0,0,0,0,0,0,0,0,0,0,0,0,0,0,0,0,0,0,0,0,0,0,0,0,0,0,0,0,0,0,0,0,0,0,0,0,0,0,0],"trees":[{"base_weights":[2.820495E-2,-1.5948445E0,1.7867672E0,-1.8797553E0,1.566762E0,-9.231441E-2,1.8490623E0,-1.9033833E0,5.841432E-1,7.352412E-1,9.4718665E-2,9.330817E-1,1.9466875E0,-9.738866E-2,-1.0330485E0,1.1404568E0,-3.5506885E-2,-5.5559594E-2,9.123161E-1,-6.630989E-1,9.663271E-2,1.5956953E0,9.890926E-2,2.9304445E-2,-6.604357E-2,7.8329936E-2,-1.3537931E-2,7.2315775E-2,-4.391955E-3,-6.6567965E-2,6.721022E-2,8.562227E-3,9.68551E-2],"categories":[],"categories_nodes":[],"categories_segments":[],"categories_sizes":[],"default_left":[0,0,0,0,0,0,0,0,0,0,0,0,0,0,0,0,0,0,0,0,0,0,0,0,0,0,0,0,0,0,0,0,0],"id":0,"left_children":[1,3,5,7,9,-1,11,13,15,17,-1,19,21,-1,23,25,-1,-1,27,29,-1,31,-1,-1,-1,-1,-1,-1,-1,-1,-1,-1,-1],"loss_changes":[4.4094575E3,7.266332E2,1.712268E2,4.40437E1,1.6848099E1,0E0,6.3415527E1,2.6216797E1,6.4043703E0,7.735839E0,0E0,1.16444885E2,4.121338E0,0E0,1.8290943E1,3.9229016E0,0E0,0E0,1.04399185E1,4.0072792E1,0E0,2.8546814E1,0E0,0E0,0E0,0E0,0E0,0E0,0E0,0E0,0E0,0E0,0E0],"parents":[2147483647,0,0,1,1,2,2,3,3,4,4,6,6,7,7,8,8,9,9,11,11,12,12,14,14,15,15,18,18,19,19,21,21],"right_children":[2,4,6,8,10,-1,12,14,16,18,-1,20,22,-1,24,26,-1,-1,28,30,-1,32,-1,-1,-1,-1,-1,-1,-1,-1,-1,-1,-1],"split_conditions":[6.7818236E-1,5.0239134E-1,4.724103E-1,6.9239646E-1,5.5717844E-1,-9.231441E-2,7.138477E-1,4.5732492E-1,9.190721E-1,5.272531E-1,9.4718665E-2,5.0239134E-1,7.383773E-1,-9.738866E-2,8.323741E-1,7.3674E-1,-3.5506885E-2,-5.5559594E-2,8.505429E-1,6.70197E-1,9.663271E-2,4.534355E-1,9.890926E-2,2.9304445E-2,-6.604357E-2,7.8329936E-2,-1.3537931E-2,7.2315775E-2,-4.391955E-3,-6.6567965E-2,6.721022E-2,8.562227E-3,9.68551E-2],"split_indices":[4,5,8,6,5,0,4,5,8,8,0,5,4,0,3,2,0,0,8,6,0,5,0,0,0,0,0,0,0,0,0,0,0],"split_type":[0,0,0,0,0,0,0,0,0,0,0,0,0,0,0,0,0,0,0,0,0,0,0,0,0,0,0,0,0,0,0,0,0],"sum_hessian":[1.5428848E3,8.024052E2,7.404796E2,7.3644525E2,6.595994E1,1.2E1,7.284796E2,7.296754E2,6.769843E0,1.9559528E1,4.6400414E1,7.1180176E1,6.5729944E2,6.930877E2,3.65877E1,4.8178587E0,1.9519843E0,1.25E0,1.8309528E1,2.7539686E1,4.364049E1,5.838216E1,5.989173E2,5.3658743E0,3.1221827E1,3.6158743E0,1.2019843E0,1.1645638E1,6.66389E0,2.091389E1,6.625796E0,1.157778E1,4.6804382E1],"tree_param":{"num_deleted":"0","num_feature":"9","num_nodes":"33","size_leaf_vector":"1"}},{"base_weights":[2.005608E-2,-1.5256577E0,1.681567E0,-1.794475E0,1.4853885E0,-9.3851E-2,1.7788072E0,-1.8378246E0,-9.592486E-1,-1.2859194E0,1.6946999E0,-8.921662E-2,1.8515339E0,-9.45641E-2,-1.7290251E0,-9.201803E-2,-1.0816694E-1,-1.4300234E-2,-7.572704E-2,-3.4589273E-1,1.8177518E0,-8.6151384E-2,1.8934454E0,-6.971782E-2,-9.371681E-2,6.250355E-2,-8.697475E-2,-5.7870157E-2,1.7669166E-2,4.974745E-3,9.3300596E-2,-5.7606366E-2,9.508046E-2],"categories":[],"categories_nodes":[],"categories_segments":[],"categories_sizes":[],"default_left":[0,0,0,0,0,0,0,0,0,0,0,0,0,0,0,0,0,0,0,0,0,0,0,0,0,0,0,0,0,0,0,0,0],"id":1,"left_children":[1,3,5,7,9,-1,11,13,15,17,19,-1,21,-1,23,-1,25,-1,-1,27,29,-1,31,-1,-1,-1,-1,-1,-1,-1,-1,-1,-1],"loss_changes":[3.9550332E3,6.484232E2,2.6016406E2,2.4771973E1,4.0425888E1,0E0,1.9064844E2,7.758789E-1,2.8486145E1,7.552881E-1,1.61306E1,0E0,1.0947974E2,0E0,9.098572E0,0E0,4.7641514E1,0E0,0E0,2.8781924E0,4.6558075E0,0E0,1.9626465E1,0E0,0E0,0E0,0E0,0E0,0E0,0E0,0E0,0E0,0E0],"parents":[2147483647,0,0,1,1,2,2,3,3,4,4,6,6,7,7,8,8,9,9,10,10,12,12,14,14,16,16,19,19,20,20,22,22],"right_children":[2,4,6,8,10,-1,12,14,16,18,20,-1,22,-1,24,-1,26,-1,-1,28,30,-1,32,-1,-1,-1,-1,-1,-1,-1,-1,-1,-1],"split_conditions":[6.7150277E-1,5.0239134E-1,3.8922387E-1,4.5732492E-1,4.1328615E-1,-9.3851E-2,4.724103E-1,3.4165606E-1,5.5070484E-1,6.209845E-1,4.8235852E-1,-8.921662E-2,3.9872208E-1,-9.45641E-2,8.6004645E-1,-9.201803E-2,7.5263196E-1,-1.4300234E-2,-7.572704E-2,4.7661328E-1,5.5778176E-1,-8.6151384E-2,1.7548251E-1,-6.971782E-2,-9.371681E-2,6.250355E-2,-8.697475E-2,-5.7870157E-2,1.7669166E-2,4.974745E-3,9.3300596E-2,-5.7606366E-2,9.508046E-2],"split_indices":[4,5,7,5,0,0,8,5,0,2,7,0,0,0,8,0,0,0,0,4,8,0,5,0,0,0,0,0,0,0,0,0,0],"split_type":[0,0,0,0,0,0,0,0,0,0,0,0,0,0,0,0,0,0,0,0,0,0,0,0,0,0,0,0,0,0,0,0,0],"sum_hessian":[1.537991E3,7.968024E2,7.411885E2,7.3186755E2,6.493492E1,1.9227806E1,7.2196063E2,6.946154E2,3.725214E1,4.1987963E0,6.0736122E1,1.3970328E1,7.079903E2,4.547805E2,2.3983492E2,1.7732044E1,1.9520094E1,1.2002574E0,2.9985387E0,3.3512192E0,5.7384903E1,7.740087E0,7.0025024E2,7.581637E1,1.6401854E2,1.0779135E1,8.74096E0,1.2478932E0,2.1033258E0,1.6513624E0,5.573354E1,1.4974031E0,6.987528E2],"tree_param":{"num_deleted":"0","num_feature":"9","num_nodes":"33","size_leaf_vector":"1"}},{"base_weights":[1.32129975E-2,-1.4701916E0,1.6135927E0,-1.7245151E0,1.4299262E0,-8.60614E-2,1.685573E0,-1.7710605E0,-8.3799857E-1,-1.1166086E0,1.5909697E0,-8.103676E-2,1.7175914E0,-1.7756364E0,-5.781491E-1,-8.7941706E-2,-1.6950885E-2,-6.764651E-2,-1.3010527E-2,2.1704074E-2,1.6599004E0,1.3232576E0,9.086514E-2,-8.92457E-2,-6.598231E-2,3.1915803E-2,-6.298212E-2,5.9422858E-2,-8.3178036E-2,-5.4657936E-2,5.398355E-2,-1.4829746E-2,8.529006E-2,7.4253962E-3,8.604245E-2],"categories":[],"categories_nodes":[],"categories_segments":[],"categories_sizes":[],"default_left":[0,0,0,0,0,0,0,0,0,0,0,0,0,0,0,0,0,0,0,0,0,0,0,0,0,0,0,0,0,0,0,0,0,0,0],"id":2,"left_children":[1,3,5,7,9,-1,11,13,15,17,19,-1,21,23,25,-1,27,-1,-1,29,31,33,-1,-1,-1,-1,-1,-1,-1,-1,-1,-1,-1,-1,-1],"loss_changes":[3.6513298E3,5.911903E2,1.8049487E2,2.881543E1,2.839238E1,0E0,7.950464E1,2.7768555E0,2.9099375E1,5.481229E-1,6.6113434E0,0E0,2.5836914E1,5.786133E-1,4.2406044E0,0E0,4.4407692E1,0E0,0E0,5.425236E0,5.79126E0,6.917035E1,0E0,0E0,0E0,0E0,0E0,0E0,0E0,0E0,0E0,0E0,0E0,0E0,0E0],"parents":[2147483647,0,0,1,1,2,2,3,3,4,4,6,6,7,7,8,8,9,9,10,10,12,12,13,13,14,14,16,16,19,19,20,20,21,21],"right_children":[2,4,6,8,10,-1,12,14,16,18,20,-1,22,24,26,-1,28,-1,-1,30,32,34,-1,-1,-1,-1,-1,-1,-1,-1,-1,-1,-1,-1,-1],"split_conditions":[6.7150277E-1,5.0239134E-1,4.724103E-1,4.5732492E-1,4.1328615E-1,-8.60614E-2,3.8035557E-1,6.9239646E-1,5.371156E-1,9.485938E-1,5.684041E-1,-8.103676E-2,5.0239134E-1,6.5952945E-1,8.525415E-1,-8.7941706E-2,7.5263196E-1,-6.764651E-2,-1.3010527E-2,5.650232E-1,3.8159227E-1,7.383773E-1,9.086514E-2,-8.92457E-2,-6.598231E-2,3.1915803E-2,-6.298212E-2,5.9422858E-2,-8.3178036E-2,-5.4657936E-2,5.398355E-2,-1.4829746E-2,8.529006E-2,7.4253962E-3,8.604245E-2],"split_indices":[4,5,8,5,0,0,0,6,0,3,8,0,5,4,3,0,0,0,0,5,4,4,0,0,0,0,0,0,0,0,0,0,0,0,0],"split_type":[0,0,0,0,0,0,0,0,0,0,0,0,0,0,0,0,0,0,0,0,0,0,0,0,0,0,0,0,0,0,0,0,0,0,0],"sum_hessian":[1.5360435E3,7.971968E2,7.388466E2,7.332963E2,6.3900486E1,1.5126521E1,7.237201E2,6.957682E2,3.7528133E1,3.447803E0,6.0452682E1,6.4654207E0,7.1725464E2,6.926228E2,3.145358E0,1.715075E1,2.0377386E1,2.2477493E0,1.2000537E0,2.5990055E0,5.785368E1,1.4764127E2,5.696134E2,6.7595557E2,1.6667246E1,1.1521418E0,1.9932162E0,1.1925507E1,8.45188E0,1.2492788E0,1.3497267E0,1.2009772E0,5.6652702E1,3.768075E1,1.0996052E2],"tree_param":{"num_deleted":"0","num_feature":"9","num_nodes":"35","size_leaf_vector":"1"}},{"base_weights":[-4.5714416E-3,-1.3972527E0,1.5603673E0,-1.6572146E0,1.3855901E0,9.0995747E-1,8.7369606E-2,-1.676538E0,5.117669E-1,-1.1298078E0,1.5438468E0,-4.3577802E-1,1.5433203E0,-1.7060559E0,-1.0900455E0,7.313465E-2,-5.653844E-1,-6.813719E-2,-1.2297592E-2,-5.5114876E-2,1.6120789E0,-7.9653525E-1,8.135202E-2,-4.9643643E-2,1.651653E0,-8.564309E-2,-5.86027E-2,2.8419215E-2,-6.694095E-2,-5.500968E-2,7.5082085E-3,1.0875701E-2,8.196104E-2,-6.759329E-2,-4.4473144E-3,-2.8099319E-2,5.612538E-2,1.7347615E-2,8.4656216E-2],"categories":[],"categories_nodes":[],"categories_segments":[],"categories_sizes":[],"default_left":[0,0,0,0,0,0,0,0,0,0,0,0,0,0,0,0,0,0,0,0,0,0,0,0,0,0,0,0,0,0,0,0,0,0,0,0,0,0,0],"id":3,"left_children":[1,3,5,7,9,11,-1,13,15,17,19,21,23,25,27,-1,29,-1,-1,-1,31,33,-1,35,37,-1,-1,-1,-1,-1,-1,-1,-1,-1,-1,-1,-1,-1,-1],"loss_changes":[3.3241252E3,5.861188E2,8.577234E1,3.1811035E1,2.9407562E1,1.3916063E2,0E0,1.0816895E1,8.291538E0,6.305709E-1,1.3657532E1,4.057188E1,1.9185913E1,5.1953125E-1,1.637962E1,0E0,1.7488254E0,0E0,0E0,0E0,2.0868683E0,1.779527E1,0E0,5.4471717E0,5.0225525E0,0E0,0E0,0E0,0E0,0E0,0E0,0E0,0E0,0E0,0E0,0E0,0E0,0E0,0E0],"parents":[2147483647,0,0,1,1,2,2,3,3,4,4,5,5,7,7,8,8,9,9,10,10,11,11,12,12,13,13,14,14,16,16,20,20,21,21,23,23,24,24],"right_children":[2,4,6,8,10,12,-1,14,16,18,20,22,24,26,28,-1,30,-1,-1,-1,32,34,-1,36,38,-1,-1,-1,-1,-1,-1,-1,-1,-1,-1,-1,-1,-1,-1],"split_conditions":[6.7818236E-1,5.0239134E-1,5.0239134E-1,6.9239646E-1,3.9872208E-1,7.3528093E-1,8.7369606E-2,4.5732492E-1,6.7304206E-1,5.7162076E-1,3.8544634E-1,7.009269E-1,5.960173E-1,6.529981E-1,8.323741E-1,7.313465E-2,8.135907E-1,-6.813719E-2,-1.2297592E-2,-5.5114876E-2,4.6616283E-1,7.0726866E-1,8.135202E-2,7.7246684E-1,7.592258E-1,-8.564309E-2,-5.86027E-2,2.8419215E-2,-6.694095E-2,-5.500968E-2,7.5082085E-3,1.0875701E-2,8.196104E-2,-6.759329E-2,-4.4473144E-3,-2.8099319E-2,5.612538E-2,1.7347615E-2,8.4656216E-2],"split_indices":[4,5,5,6,0,4,0,5,2,6,1,6,6,6,3,0,2,0,0,0,0,4,0,4,0,0,0,0,0,0,0,0,0,0,0,0,0,0,0],"split_type":[0,0,0,0,0,0,0,0,0,0,0,0,0,0,0,0,0,0,0,0,0,0,0,0,0,0,0,0,0,0,0,0,0,0,0,0,0,0,0],"sum_hessian":[1.5232048E3,8.0601636E2,7.1718854E2,7.375243E2,6.8492065E1,1.6148004E2,5.557085E2,7.3123676E2,6.2875323E0,3.690747E0,6.4801315E1,5.177764E1,1.097024E2,6.9438007E2,3.6856663E1,3.1493287E0,3.1382039E0,2.492139E0,1.1986079E0,1.2479687E0,6.355335E1,4.4592854E1,7.1847878E0,7.01997E0,1.02682434E2,6.8346173E2,1.091836E1,4.6399627E0,3.22167E1,1.4882878E0,1.6499159E0,1.3853877E0,6.216796E1,2.4474352E1,2.0118502E1,5.2470546E0,1.7729157E0,3.451852E0,9.923058E1],"tree_param":{"num_deleted":"0","num_feature":"9","num_nodes":"39","size_leaf_vector":"1"}},{"base_weights":[1.11957025E-2,-1.3623595E0,1.4921538E0,-1.4716866E0,3.316401E-1,-8.90088E-2,1.5798873E0,-1.5845783E0,-9.9233925E-1,-7.778349E-2,6.969527E-1,-8.1213616E-2,1.6491188E0,-1.6158315E0,-1.2707479E0,3.4182638E-1,-1.1673853E0,-7.4629985E-2,1.1227522E0,-7.650595E-2,1.6821419E0,-8.302812E-2,-7.5487375E-2,-1.7567581E-3,-7.658804E-2,-5.683161E-2,4.8179936E-2,-6.281259E-2,3.0572629E-2,-6.2793784E-2,6.798589E-2,-2.1715099E-2,8.436016E-2],"categories":[],"categories_nodes":[],"categories_segments":[],"categories_sizes":[],"default_left":[0,0,0,0,0,0,0,0,0,0,0,0,0,0,0,0,0,0,0,0,0,0,0,0,0,0,0,0,0,0,0,0,0],"id":4,"left_children":[1,3,5,7,9,-1,11,13,15,-1,17,-1,19,21,23,25,27,-1,29,-1,31,-1,-1,-1,-1,-1,-1,-1,-1,-1,-1,-1,-1],"loss_changes":[3.055885E3,1.4483325E2,2.1034314E2,3.8057373E1,3.4224747E1,0E0,1.589624E2,3.7440186E0,3.362526E1,0E0,3.986593E1,0E0,7.502869E1,2.6123047E-2,1.8720566E1,1.6975481E1,2.0685608E1,0E0,2.1359127E1,0E0,8.054077E0,0E0,0E0,0E0,0E0,0E0,0E0,0E0,0E0,0E0,0E0,0E0,0E0],"parents":[2147483647,0,0,1,1,2,2,3,3,4,4,6,6,7,7,8,8,10,10,12,12,13,13,14,14,15,15,16,16,18,18,20,20],"right_children":[2,4,6,8,10,-1,12,14,16,-1,18,-1,20,22,24,26,28,-1,30,-1,32,-1,-1,-1,-1,-1,-1,-1,-1,-1,-1,-1,-1],"split_conditions":[6.7357045E-1,6.423991E-1,3.8922387E-1,6.0722584E-1,5.1525736E-1,-8.90088E-2,4.724103E-1,5.800851E-1,6.362745E-1,-7.778349E-2,3.2933858E-1,-8.1213616E-2,3.71166E-1,5.3254265E-1,8.006826E-1,4.439932E-1,8.593534E-1,-7.4629985E-2,3.6782894E-1,-7.650595E-2,3.2672098E-1,-8.302812E-2,-7.5487375E-2,-1.7567581E-3,-7.658804E-2,-5.683161E-2,4.8179936E-2,-6.281259E-2,3.0572629E-2,-6.2793784E-2,6.798589E-2,-2.1715099E-2,8.436016E-2],"split_indices":[4,6,7,4,8,0,8,6,2,0,7,0,0,4,8,0,7,0,0,0,6,0,0,0,0,0,0,0,0,0,0,0,0],"split_type":[0,0,0,0,0,0,0,0,0,0,0,0,0,0,0,0,0,0,0,0,0,0,0,0,0,0,0,0,0,0,0,0,0],"sum_hessian":[1.500271E3,7.7840137E2,7.218696E2,7.3133386E2,4.7067486E1,1.834481E1,7.0352484E2,5.90062E2,1.412719E2,7.104604E0,3.9962883E1,1.4404328E1,6.891205E2,5.328488E2,5.7213192E1,1.6274921E1,1.2499697E2,6.0983663E0,3.3864517E1,6.6183395E0,6.8250214E2,3.6450153E2,1.6834727E2,1.0175911E1,4.703728E1,4.573038E0,1.1701883E1,1.1932935E2,5.667621E0,2.6784813E0,3.1186035E1,1.4259076E0,6.8107623E2],"tree_param":{"num_deleted":"0","num_feature":"9","num_nodes":"33","size_leaf_vector":"1"}},{"base_weights":[9.642689E-3,-1.1007655E0,1.592744E0,-1.4295092E0,1.4880812E0,-6.954088E-2,1.6119986E0,-1.5131717E0,1.0468934E0,-4.014992E-1,1.5908751E0,-6.873357E-2,1.624121E0,-1.5557467E0,-8.8380873E-1,-5.8883037E-2,1.2793425E0,-6.296163E-2,4.2730864E-2,1.2826957E-2,1.6074888E0,-1.5085615E-2,1.6283827E0,-7.9253666E-2,-3.1726394E-2,3.3801947E-2,-5.507653E-2,-1.685167E-2,6.980478E-2,2.393464E-2,8.079306E-2,2.2058545E-2,8.15613E-2],"categories":[],"categories_nodes":[],"categories_segments":[],"categories_sizes":[],"default_left":[0,0,0,0,0,0,0,0,0,0,0,0,0,0,0,0,0,0,0,0,0,0,0,0,0,0,0,0,0,0,0,0,0],"id":5,"left_children":[1,3,5,7,9,-1,11,13,15,17,19,-1,21,23,25,-1,27,-1,-1,-1,29,-1,31,-1,-1,-1,-1,-1,-1,-1,-1,-1,-1],"loss_changes":[2.602014E3,7.4254126E2,3.729712E1,1.6162561E2,1.9774353E1,0E0,2.4200806E1,1.8657837E1,1.4865883E1,7.412771E0,1.6633301E0,0E0,5.454834E0,1.7876953E1,1.7618793E1,0E0,4.9752617E0,0E0,0E0,0E0,9.877014E-2,0E0,1.3178711E0,0E0,0E0,0E0,0E0,0E0,0E0,0E0,0E0,0E0,0E0],"parents":[2147483647,0,0,1,1,2,2,3,3,4,4,6,6,7,7,8,8,9,9,10,10,12,12,13,13,14,14,16,16,20,20,22,22],"right_children":[2,4,6,8,10,-1,12,14,16,18,20,-1,22,24,26,-1,28,-1,-1,-1,30,-1,32,-1,-1,-1,-1,-1,-1,-1,-1,-1,-1],"split_conditions":[5.0239134E-1,8.607944E-1,3.9872208E-1,6.825983E-1,5.895391E-1,-6.954088E-2,2.7637812E-1,6.2829834E-1,3.12956E-1,8.12522E-1,7.385066E-1,-6.873357E-2,3.9881474E-1,4.6676153E-1,6.57954E-1,-5.8883037E-2,5.7140815E-1,-6.296163E-2,4.2730864E-2,1.2826957E-2,8.468438E-1,-1.5085615E-2,4.6616283E-1,-7.9253666E-2,-3.1726394E-2,3.3801947E-2,-5.507653E-2,-1.685167E-2,6.980478E-2,2.393464E-2,8.079306E-2,2.2058545E-2,8.15613E-2],"split_indices":[5,7,0,6,6,0,7,6,7,1,1,0,1,5,2,0,0,0,0,0,3,0,0,0,0,0,0,0,0,0,0,0,0],"split_type":[0,0,0,0,0,0,0,0,0,0,0,0,0,0,0,0,0,0,0,0,0,0,0,0,0,0,0,0,0,0,0,0,0],"sum_hessian":[1.4781952E3,8.689834E2,6.092118E2,7.7146686E2,9.7516594E1,3.4496267E0,6.057622E2,7.4663165E2,2.4835157E1,4.8813176E0,9.263528E1,1.9943784E0,6.037678E2,6.979453E2,4.8686333E1,1.9648731E0,2.2870283E1,2.8991592E0,1.9821584E0,1.3413904E0,9.1293884E1,1.1790073E0,6.025888E2,6.7571375E2,2.223161E1,5.7054086E0,4.2980927E1,1.4135685E0,2.1456715E1,1.1004688E0,9.019341E1,1.8127943E0,6.00776E2],"tree_param":{"num_deleted":"0","num_feature":"9","num_nodes":"33","size_leaf_vector":"1"}},{"base_weights":[9.007286E-3,-1.0912845E0,1.5187689E0,-1.4328802E0,1.1859034E0,-1.0431856E0,1.5541373E0,-1.4801886E0,7.8065515E-1,-1.1046354E0,1.5069914E0,-7.6430015E-2,4.9860716E-2,-7.4316315E-2,1.5741701E0,-1.5138967E0,-7.5430906E-1,-5.602747E-2,1.0903046E0,-1.3854717E0,4.682665E-2,-5.5208135E-2,1.5716609E0,-5.9569724E-2,1.5842226E0,-7.6503776E-2,-3.8279455E-2,1.5319596E-2,-5.437818E-2,-5.4499734E-2,7.380627E-2,-7.4183874E-2,-9.974944E-3,1.2592904E-2,7.938558E-2,-1.3047896E-2,7.9414256E-2],"categories":[],"categories_nodes":[],"categories_segments":[],"categories_sizes":[],"default_left":[0,0,0,0,0,0,0,0,0,0,0,0,0,0,0,0,0,0,0,0,0,0,0,0,0,0,0,0,0,0,0,0,0,0,0,0,0],"id":6,"left_children":[1,3,5,7,9,11,13,15,17,19,21,-1,-1,-1,23,25,27,-1,29,31,-1,-1,33,-1,35,-1,-1,-1,-1,-1,-1,-1,-1,-1,-1,-1,-1],"loss_changes":[2.4020808E3,6.523441E2,5.6856323E1,7.7368286E1,8.2310074E1,1.0338382E1,3.8987305E1,1.6301025E1,1.0572572E1,9.356239E0,1.8046448E1,0E0,0E0,0E0,1.8518555E1,7.064575E0,1.2220602E1,0E0,1.3525364E1,1.1903152E0,0E0,0E0,1.6056366E0,0E0,4.88562E0,0E0,0E0,0E0,0E0,0E0,0E0,0E0,0E0,0E0,0E0,0E0,0E0],"parents":[2147483647,0,0,1,1,2,2,3,3,4,4,5,5,6,6,7,7,8,8,9,9,10,10,14,14,15,15,16,16,18,18,19,19,22,22,24,24],"right_children":[2,4,6,8,10,12,14,16,18,20,22,-1,-1,-1,24,26,28,-1,30,32,-1,-1,34,-1,36,-1,-1,-1,-1,-1,-1,-1,-1,-1,-1,-1,-1],"split_conditions":[4.884531E-1,8.3587015E-1,4.7722557E-1,6.888213E-1,6.02465E-1,5.6876135E-1,3.635673E-1,6.3828534E-1,2.0800704E-1,9.044636E-1,1.8177259E-1,-7.6430015E-2,4.9860716E-2,-7.4316315E-2,4.724103E-1,4.6676153E-1,7.098422E-1,-5.602747E-2,3.12956E-1,8.393727E-1,4.682665E-2,-5.5208135E-2,7.453153E-1,-5.9569724E-2,3.9881474E-1,-7.6503776E-2,-3.8279455E-2,1.5319596E-2,-5.437818E-2,-5.4499734E-2,7.380627E-2,-7.4183874E-2,-9.974944E-3,1.2592904E-2,7.938558E-2,-1.3047896E-2,7.9414256E-2],"split_indices":[5,7,0,6,6,5,7,6,8,7,8,0,0,0,8,5,0,0,7,2,0,0,1,0,1,0,0,0,0,0,0,0,0,0,0,0,0],"split_type":[0,0,0,0,0,0,0,0,0,0,0,0,0,0,0,0,0,0,0,0,0,0,0,0,0,0,0,0,0,0,0,0,0,0,0,0,0],"sum_hessian":[1.4440125E3,8.3543616E2,6.0857623E2,7.2678375E2,1.08652374E2,7.8991184E0,6.006771E2,7.119001E2,1.4883677E1,1.3058305E1,9.559407E1,6.5836825E0,1.3154361E0,3.4526868E0,5.972244E2,6.792709E2,3.262925E1,1.717808E0,1.3165868E1,1.1761344E1,1.2969611E0,1.9218471E0,9.367222E1,1.7373569E0,5.9548706E2,6.638728E2,1.5398048E1,7.8199825E0,2.4809267E1,1.7050999E0,1.1460768E1,1.0630086E1,1.131258E0,1.3260537E0,9.234617E1,1.1692837E0,5.943178E2],"tree_param":{"num_deleted":"0","num_feature":"9","num_nodes":"37","size_leaf_vector":"1"}},{"base_weights":[-1.2558454E-2,-1.2209202E0,1.3677074E0,-1.4394513E0,1.2856672E0,-8.081246E-2,1.4474964E0,-1.5037657E0,-9.668757E-1,-9.748428E-1,1.4418185E0,-7.410903E-2,1.5087019E0,-7.5294584E-2,-1.6232153E-2,-7.746176E-2,-4.6035284E-1,-5.9730824E-2,-9.188032E-3,-2.2448044E-2,1.4973555E0,-6.982508E-2,1.5400457E0,3.5557017E-2,-6.730515E-2,-1.8080227E-2,7.712566E-2,9.889316E-3,7.712578E-2],"categories":[],"categories_nodes":[],"categories_segments":[],"categories_sizes":[],"default_left":[0,0,0,0,0,0,0,0,0,0,0,0,0,0,0,0,0,0,0,0,0,0,0,0,0,0,0,0,0],"id":7,"left_children":[1,3,5,7,9,-1,11,13,15,17,19,-1,21,-1,-1,-1,23,-1,-1,-1,25,-1,27,-1,-1,-1,-1,-1,-1],"loss_changes":[2.3918452E3,4.2070178E2,1.6172144E2,1.9937012E1,2.323629E1,0E0,1.19241455E2,1.0595703E0,2.4982391E1,5.789776E-1,6.789383E0,0E0,6.0398315E1,0E0,0E0,0E0,5.0776146E1,0E0,0E0,0E0,5.32782E0,0E0,1.7944336E0,0E0,0E0,0E0,0E0,0E0,0E0],"parents":[2147483647,0,0,1,1,2,2,3,3,4,4,6,6,7,7,8,8,9,9,10,10,12,12,16,16,20,20,22,22],"right_children":[2,4,6,8,10,-1,12,14,16,18,20,-1,22,-1,-1,-1,24,-1,-1,-1,26,-1,28,-1,-1,-1,-1,-1,-1],"split_conditions":[6.7818236E-1,5.0239134E-1,3.8922387E-1,4.2258087E-1,4.1328615E-1,-8.081246E-2,2.1439865E-1,8.8872576E-1,5.000908E-1,9.6112674E-1,5.1525736E-1,-7.410903E-2,3.8035557E-1,-7.5294584E-2,-1.6232153E-2,-7.746176E-2,7.46693E-1,-5.9730824E-2,-9.188032E-3,-2.2448044E-2,4.0336058E-1,-6.982508E-2,1.8870682E-1,3.5557017E-2,-6.730515E-2,-1.8080227E-2,7.712566E-2,9.889316E-3,7.712578E-2],"split_indices":[4,5,7,5,0,0,8,7,0,3,8,0,0,0,0,0,0,0,0,0,7,0,5,0,0,0,0,0,0],"split_type":[0,0,0,0,0,0,0,0,0,0,0,0,0,0,0,0,0,0,0,0,0,0,0,0,0,0,0,0,0],"sum_hessian":[1.4320787E3,7.6365125E2,6.684275E2,7.0280457E2,6.0846695E1,1.6906342E1,6.515212E2,6.166945E2,8.611005E1,3.5928066E0,5.7253887E1,1.2857654E1,6.386635E2,6.15308E2,1.3865144E0,3.90988E1,4.701125E1,2.412481E0,1.1803253E0,1.4315672E0,5.582232E1,6.351998E0,6.323115E2,2.032566E1,2.6685589E1,1.1576809E0,5.466464E1,1.3103129E0,6.310012E2],"tree_param":{"num_deleted":"0","num_feature":"9","num_nodes":"29","size_leaf_vector":"1"}},{"base_weights":[1.8054876E-2,-9.929118E-1,1.463632E0,-1.3099965E0,1.2580647E0,-9.781241E-1,1.4815842E0,-1.3458853E0,-7.920909E-2,-7.5257105E-1,1.4201108E0,-5.957371E-2,-8.689791E-3,-5.9886742E-2,1.4918785E0,-1.414207E0,-9.0571356E-1,-9.790465E-1,1.0562943E0,-6.4489685E-2,1.9671938E-1,-5.015093E-2,1.4786564E0,-2.180042E-2,1.497507E0,-7.13383E-2,1.6969988E-2,2.3387391E-2,-5.5825006E-2,3.252614E-2,-5.9784938E-2,-4.084979E-2,6.9453925E-2,-2.4481615E-2,4.4649262E-2,-9.464934E-3,7.502332E-2,1.8689655E-2,7.501836E-2],"categories":[],"categories_nodes":[],"categories_segments":[],"categories_sizes":[],"default_left":[0,0,0,0,0,0,0,0,0,0,0,0,0,0,0,0,0,0,0,0,0,0,0,0,0,0,0,0,0,0,0,0,0,0,0,0,0,0,0],"id":8,"left_children":[1,3,5,7,9,11,13,15,17,19,21,-1,-1,-1,23,25,27,29,31,-1,33,-1,35,-1,37,-1,-1,-1,-1,-1,-1,-1,-1,-1,-1,-1,-1,-1,-1],"loss_changes":[2.0406409E3,5.881334E2,2.6638672E1,3.1728882E1,3.4291122E1,6.160002E-1,1.753186E1,1.9777832E1,2.2984718E1,4.465479E0,1.4918747E1,0E0,0E0,0E0,6.828247E0,1.37948E1,2.8565948E1,5.192416E0,7.3556414E0,0E0,2.2781954E0,0E0,3.6627808E0,0E0,1.2636719E0,0E0,0E0,0E0,0E0,0E0,0E0,0E0,0E0,0E0,0E0,0E0,0E0,0E0,0E0],"parents":[2147483647,0,0,1,1,2,2,3,3,4,4,5,5,6,6,7,7,8,8,9,9,10,10,14,14,15,15,16,16,17,17,18,18,20,20,22,22,24,24],"right_children":[2,4,6,8,10,12,14,16,18,20,22,-1,-1,-1,24,26,28,30,32,-1,34,-1,36,-1,38,-1,-1,-1,-1,-1,-1,-1,-1,-1,-1,-1,-1,-1,-1],"split_conditions":[5.0239134E-1,8.5043037E-1,4.1328615E-1,8.593793E-1,8.659495E-1,3.6782894E-1,3.635673E-1,4.2035338E-1,7.9655164E-1,8.820959E-1,3.9101174E-1,-5.957371E-2,-8.689791E-3,-5.9886742E-2,5.1525736E-1,9.2291045E-1,8.381025E-1,5.586327E-1,8.659495E-1,-6.4489685E-2,8.12522E-1,-5.015093E-2,1.7971939E-1,-2.180042E-2,4.6616283E-1,-7.13383E-2,1.6969988E-2,2.3387391E-2,-5.5825006E-2,3.252614E-2,-5.9784938E-2,-4.084979E-2,6.9453925E-2,-2.4481615E-2,4.4649262E-2,-9.464934E-3,7.502332E-2,1.8689655E-2,7.501836E-2],"split_indices":[5,7,0,2,8,0,7,5,7,7,0,0,0,0,8,0,3,1,8,0,1,0,5,0,0,0,0,0,0,0,0,0,0,0,0,0,0,0,0],"split_type":[0,0,0,0,0,0,0,0,0,0,0,0,0,0,0,0,0,0,0,0,0,0,0,0,0,0,0,0,0,0,0,0,0,0,0,0,0,0,0],"sum_hessian":[1.394337E3,8.2069543E2,5.7364154E2,7.1972864E2,1.0096684E2,3.7963676E0,5.6984515E2,6.992457E2,2.0482904E1,7.2586565E0,9.370818E1,2.6200614E0,1.1763061E0,1.7395605E0,5.681056E2,6.0337866E2,9.586703E1,1.1504149E1,8.978755E0,4.406332E0,2.8523242E0,1.8301058E0,9.1878075E1,1.4311732E0,5.6667444E2,5.992732E2,4.105498E0,1.2593051E1,8.327397E1,1.1149957E0,1.03891535E1,1.1349462E0,7.843809E0,1.5858395E0,1.2664847E0,1.0867664E0,9.079131E1,1.7730397E0,5.649014E2],"tree_param":{"num_deleted":"0","num_feature":"9","num_nodes":"39","size_leaf_vector":"1"}},{"base_weights":[-3.283834E-3,-9.6591526E-1,1.4265753E0,-1.3137448E0,8.977266E-1,-7.9645944E-1,1.4462262E0,-1.3645452E0,-7.111246E-1,-7.0784844E-2,1.0920378E0,-6.410415E-2,2.8302386E-2,-4.9705237E-2,1.4536055E0,-1.4148892E0,-9.4898653E-1,-1.02233E0,5.350117E-1,-6.1499525E-2,1.1684027E0,4.5122445E-1,7.289621E-2,-7.115751E-2,-1.8306563E-2,-7.3742695E-2,-2.4336632E-2,3.5000127E-3,-5.7447787E-2,-4.0408675E-2,5.0924044E-2,-4.734337E-2,6.2107664E-2,-1.8045438E-2,4.7183383E-2],"categories":[],"categories_nodes":[],"categories_segments":[],"categories_sizes":[],"default_left":[0,0,0,0,0,0,0,0,0,0,0,0,0,0,0,0,0,0,0,0,0,0,0,0,0,0,0,0,0,0,0,0,0,0,0],"id":9,"left_children":[1,3,5,7,9,11,13,15,17,-1,19,-1,-1,-1,21,23,25,27,29,-1,31,33,-1,-1,-1,-1,-1,-1,-1,-1,-1,-1,-1,-1,-1],"loss_changes":[1.8733123E3,5.2844275E2,2.507373E1,2.0026245E1,5.9322174E1,4.3272314E0,1.1226318E1,1.1867798E1,2.2035576E1,0E0,2.2561981E1,0E0,0E0,0E0,1.6882324E0,4.3409424E0,1.6606613E1,6.2606735E0,8.439984E0,0E0,1.9249481E1,1.8495619E0,0E0,0E0,0E0,0E0,0E0,0E0,0E0,0E0,0E0,0E0,0E0,0E0,0E0],"parents":[2147483647,0,0,1,1,2,2,3,3,4,4,5,5,6,6,7,7,8,8,10,10,14,14,15,15,16,16,17,17,18,18,20,20,21,21],"right_children":[2,4,6,8,10,12,14,16,18,-1,20,-1,-1,-1,22,24,26,28,30,-1,32,34,-1,-1,-1,-1,-1,-1,-1,-1,-1,-1,-1,-1,-1],"split_conditions":[5.0239134E-1,6.423991E-1,4.2361957E-1,6.092114E-1,5.1525736E-1,5.650232E-1,5.1525736E-1,4.2501095E-1,8.720611E-1,-7.0784844E-2,4.5069113E-1,-6.410415E-2,2.8302386E-2,-4.9705237E-2,4.3117502E-1,8.717879E-1,5.000908E-1,6.524577E-1,9.350586E-1,-6.1499525E-2,7.2790986E-1,5.7949036E-1,7.289621E-2,-7.115751E-2,-1.8306563E-2,-7.3742695E-2,-2.4336632E-2,3.5000127E-3,-5.7447787E-2,-4.0408675E-2,5.0924044E-2,-4.734337E-2,6.2107664E-2,-1.8045438E-2,4.7183383E-2],"split_indices":[5,6,0,6,8,5,8,5,0,0,0,0,0,0,1,2,0,2,8,0,3,2,0,0,0,0,0,0,0,0,0,0,0,0,0],"split_type":[0,0,0,0,0,0,0,0,0,0,0,0,0,0,0,0,0,0,0,0,0,0,0,0,0,0,0,0,0,0,0,0,0,0,0],"sum_hessian":[1.358995E3,8.1238995E2,5.4660504E2,6.848625E2,1.2752745E2,4.4431E0,5.421619E2,6.3045154E2,5.441098E1,9.394385E0,1.18133064E2,3.3191266E0,1.1239731E0,1.2313726E0,5.4093054E2,5.6018207E2,7.026943E1,4.368168E1,1.07293005E1,3.2803617E0,1.1485271E2,2.7731254E0,5.381574E2,5.554498E2,4.7322288E0,3.1848034E1,3.84214E1,4.584128E0,3.9097553E1,2.6620157E0,8.067285E0,3.470659E0,1.1138204E2,1.1476071E0,1.6255182E0],"tree_param":{"num_deleted":"0","num_feature":"9","num_nodes":"35","size_leaf_vector":"1"}},{"base_weights":[-4.3071043E-3,-1.1483736E0,1.2784147E0,-1.3521594E0,1.0584023E0,-6.813456E-2,1.3256646E0,-1.3722945E0,4.6568775E-1,-1.0080225E0,1.2430669E0,-6.31769E-2,1.3506016E0,-7.034598E-2,-8.0328274E-1,1.1077098E0,-7.130179E-1,-6.0953256E-2,-6.05594E-3,-1.35964425E-2,1.3081526E0,7.454136E-1,1.3900495E0,-7.143904E-2,-1.3826335E-2,6.47619E-2,1.567993E-2,-4.419016E-2,-1.0295297E-2,6.782709E-3,6.833406E-2,-1.8711332E-2,6.727214E-2,6.0545124E-2,7.143952E-2],"categories":[],"categories_nodes":[],"categories_segments":[],"categories_sizes":[],"default_left":[0,0,0,0,0,0,0,0,0,0,0,0,0,0,0,0,0,0,0,0,0,0,0,0,0,0,0,0,0,0,0,0,0,0,0],"id":10,"left_children":[1,3,5,7,9,-1,11,13,15,17,19,-1,21,-1,23,25,27,-1,-1,-1,29,31,33,-1,-1,-1,-1,-1,-1,-1,-1,-1,-1,-1,-1],"loss_changes":[1.9265214E3,3.1347937E2,7.9038635E1,2.3906128E1,2.3851646E1,0E0,4.099646E1,1.1261597E1,6.624692E0,8.650241E-1,5.760338E0,0E0,1.3364136E1,0E0,1.2259773E1,3.9546776E-1,1.0618031E-1,0E0,0E0,0E0,3.4328537E0,2.6750181E1,2.1920166E0,0E0,0E0,0E0,0E0,0E0,0E0,0E0,0E0,0E0,0E0,0E0,0E0],"parents":[2147483647,0,0,1,1,2,2,3,3,4,4,6,6,7,7,8,8,9,9,10,10,12,12,14,14,15,15,16,16,20,20,21,21,22,22],"right_children":[2,4,6,8,10,-1,12,14,16,18,20,-1,22,-1,24,26,28,-1,-1,-1,30,32,34,-1,-1,-1,-1,-1,-1,-1,-1,-1,-1,-1,-1],"split_conditions":[6.7818236E-1,5.0239134E-1,2.1439865E-1,6.9239646E-1,4.1328615E-1,-6.813456E-2,3.8035557E-1,4.534355E-1,9.190721E-1,5.7162076E-1,5.684041E-1,-6.31769E-2,7.021505E-1,-7.034598E-2,5.0892466E-1,8.726917E-1,9.425972E-1,-6.0953256E-2,-6.05594E-3,-1.35964425E-2,4.250802E-1,5.0239134E-1,4.5732492E-1,-7.143904E-2,-1.3826335E-2,6.47619E-2,1.567993E-2,-4.419016E-2,-1.0295297E-2,6.782709E-3,6.833406E-2,-1.8711332E-2,6.727214E-2,6.0545124E-2,7.143952E-2],"split_indices":[4,5,8,6,0,0,0,5,8,6,8,0,4,0,0,3,8,0,0,0,4,5,5,0,0,0,0,0,0,0,0,0,0,0,0],"split_type":[0,0,0,0,0,0,0,0,0,0,0,0,0,0,0,0,0,0,0,0,0,0,0,0,0,0,0,0,0,0,0,0,0,0,0],"sum_hessian":[1.310774E3,6.928881E2,6.178859E2,6.3466675E2,5.822136E1,1.03705225E1,6.075154E2,6.2795636E2,6.710389E0,4.4103365E0,5.3811024E1,5.3214345E0,6.02194E2,5.9054834E2,3.7408047E1,4.383176E0,2.3272135E0,3.260071E0,1.1502652E0,2.085641E0,5.1725384E1,3.806822E1,5.6412573E2,1.6318356E1,2.1089693E1,3.0353334E0,1.3478423E0,1.1852335E0,1.14198E0,2.6169972E0,4.9108387E1,1.3414116E1,2.4654102E1,1.06037926E2,4.580878E2],"tree_param":{"num_deleted":"0","num_feature":"9","num_nodes":"35","size_leaf_vector":"1"}},{"base_weights":[7.165435E-3,-1.1146872E0,1.2270658E0,-1.3174272E0,1.1286985E0,-7.6126896E-2,1.3141458E0,-1.3336115E0,2.5631955E-1,-5.523002E-2,1.2699256E0,6.77325E-1,6.919456E-2,-1.3565074E0,-5.9000546E-1,9.8763263E-1,-7.3719E-1,4.81018E-1,6.916671E-2,-4.4526467E-1,1.3441713E0,-6.795036E-2,-6.870573E-3,-5.954435E-3,-5.8509357E-2,5.845921E-2,1.5980171E-2,-4.813264E-2,-7.0420057E-3,4.328748E-2,-1.9503368E-2,-5.7784338E-2,3.1617247E-2,1.8670661E-2,6.849365E-2],"categories":[],"categories_nodes":[],"categories_segments":[],"categories_sizes":[],"default_left":[0,0,0,0,0,0,0,0,0,0,0,0,0,0,0,0,0,0,0,0,0,0,0,0,0,0,0,0,0,0,0,0,0,0,0],"id":11,"left_children":[1,3,5,7,9,-1,11,13,15,-1,17,19,-1,21,23,25,27,29,-1,31,33,-1,-1,-1,-1,-1,-1,-1,-1,-1,-1,-1,-1,-1,-1],"loss_changes":[1.7570432E3,3.0568097E2,1.4926709E2,1.5976685E1,1.905632E1,0E0,2.5565796E1,9.546997E0,5.8774576E0,0E0,4.08609E0,4.615824E1,0E0,1.6077881E0,5.304201E0,1.7327213E-1,3.454398E-1,3.08848E0,0E0,1.8668741E1,4.4728088E-1,0E0,0E0,0E0,0E0,0E0,0E0,0E0,0E0,0E0,0E0,0E0,0E0,0E0,0E0],"parents":[2147483647,0,0,1,1,2,2,3,3,4,4,6,6,7,7,8,8,10,10,11,11,13,13,14,14,15,15,16,16,17,17,19,19,20,20],"right_children":[2,4,6,8,10,-1,12,14,16,-1,18,20,-1,22,24,26,28,30,-1,32,34,-1,-1,-1,-1,-1,-1,-1,-1,-1,-1,-1,-1,-1,-1],"split_conditions":[6.7150277E-1,5.0239134E-1,3.8922387E-1,6.9239646E-1,4.8235852E-1,-7.6126896E-2,7.0952165E-1,4.7215885E-1,7.3674E-1,-5.523002E-2,5.2689445E-1,4.7215885E-1,6.919456E-2,9.0707314E-1,6.903429E-1,8.726917E-1,4.115782E-1,9.161129E-1,6.916671E-2,6.2829834E-1,5.0239134E-1,-6.795036E-2,-6.870573E-3,-5.954435E-3,-5.8509357E-2,5.845921E-2,1.5980171E-2,-4.813264E-2,-7.0420057E-3,4.328748E-2,-1.9503368E-2,-5.7784338E-2,3.1617247E-2,1.8670661E-2,6.849365E-2],"split_indices":[4,5,7,6,7,0,4,5,2,0,5,5,0,2,7,3,5,3,0,6,5,0,0,0,0,0,0,0,0,0,0,0,0,0,0],"split_type":[0,0,0,0,0,0,0,0,0,0,0,0,0,0,0,0,0,0,0,0,0,0,0,0,0,0,0,0,0,0,0,0,0,0,0],"sum_hessian":[1.281874E3,6.6781757E2,6.1405646E2,6.1284607E2,5.497155E1,1.834415E1,5.9571234E2,6.067587E2,6.0872865E0,2.863772E0,5.2107777E1,5.9860336E1,5.35852E2,5.8783484E2,1.892391E1,3.5097256E0,2.577561E0,7.207998E0,4.4899776E1,2.2431217E1,3.742912E1,5.865174E2,1.3174374E0,1.111083E1,7.81308E0,2.1698282E0,1.3398973E0,1.4246863E0,1.1528745E0,5.004008E0,2.2039905E0,1.34751625E1,8.956055E0,1.3659416E0,3.606318E1],"tree_param":{"num_deleted":"0","num_feature":"9","num_nodes":"35","size_leaf_vector":"1"}},{"base_weights":[-1.4033491E-2,-1.091942E0,1.2124017E0,-1.2965688E0,1.0797411E0,-7.444488E-2,1.2924052E0,-1.3292606E0,-7.966127E-1,-5.124262E-2,1.167639E0,-6.728192E-2,1.3459152E0,-6.892665E-2,-1.2237321E0,-6.953997E-2,-2.3225619E-1,-5.7541627E-2,1.2524011E0,-6.246993E-2,1.3755124E0,-4.588177E-2,-6.7985766E-2,5.43E-2,-5.6733813E-2,-4.9621444E-2,6.615397E-2,-2.8763E-4,6.895968E-2],"categories":[],"categories_nodes":[],"categories_segments":[],"categories_sizes":[],"default_left":[0,0,0,0,0,0,0,0,0,0,0,0,0,0,0,0,0,0,0,0,0,0,0,0,0,0,0,0,0],"id":12,"left_children":[1,3,5,7,9,-1,11,13,15,-1,17,-1,19,-1,21,-1,23,-1,25,-1,27,-1,-1,-1,-1,-1,-1,-1,-1],"loss_changes":[1.6507858E3,2.9673584E2,1.2816083E2,8.875549E0,1.1884369E1,0E0,8.197015E1,1.2717896E0,1.302364E1,0E0,1.2431778E1,0E0,4.4509094E1,0E0,6.661743E0,0E0,2.6944103E1,0E0,9.949333E0,0E0,2.810913E0,0E0,0E0,0E0,0E0,0E0,0E0,0E0,0E0],"parents":[2147483647,0,0,1,1,2,2,3,3,4,4,6,6,7,7,8,8,10,10,12,12,14,14,16,16,18,18,20,20],"right_children":[2,4,6,8,10,-1,12,14,16,-1,18,-1,20,-1,22,-1,24,-1,26,-1,28,-1,-1,-1,-1,-1,-1,-1,-1],"split_conditions":[6.7818236E-1,5.0239134E-1,3.8922387E-1,4.5054165E-1,3.6782894E-1,-7.444488E-2,2.1439865E-1,3.4340763E-1,5.7140815E-1,-5.124262E-2,3.635673E-1,-6.728192E-2,3.8035557E-1,-6.892665E-2,8.659495E-1,-6.953997E-2,7.5263196E-1,-5.7541627E-2,5.1525736E-1,-6.246993E-2,1.7971939E-1,-4.588177E-2,-6.7985766E-2,5.43E-2,-5.6733813E-2,-4.9621444E-2,6.615397E-2,-2.8763E-4,6.895968E-2],"split_indices":[4,5,7,5,0,0,8,5,0,0,7,0,0,0,8,0,0,0,8,0,5,0,0,0,0,0,0,0,0],"split_type":[0,0,0,0,0,0,0,0,0,0,0,0,0,0,0,0,0,0,0,0,0,0,0,0,0,0,0,0,0],"sum_hessian":[1.2467162E3,6.635951E2,5.831211E2,6.0682043E2,5.677469E1,1.6266802E1,5.668543E2,5.680192E2,3.880121E1,1.8487765E0,5.492591E1,1.0789368E1,5.5606494E2,3.789982E2,1.8902101E2,1.818773E1,2.0613478E1,1.493639E0,5.343227E1,5.80522E0,5.502597E2,6.0525883E1,1.2849512E2,8.294066E0,1.2319412E1,1.2328842E0,5.2199387E1,1.4611187E0,5.487986E2],"tree_param":{"num_deleted":"0","num_feature":"9","num_nodes":"29","size_leaf_vector":"1"}},{"base_weights":[-1.10254595E-2,-9.142135E-1,1.1632837E0,-1.06219E0,6.7487717E-1,-6.998519E-2,1.2399048E0,-8.223488E-1,-1.2434818E0,-6.0093796E-1,1.1372881E0,-6.802605E-2,1.3059402E0,-6.811147E-2,-2.2312146E-1,-1.3084078E0,-6.456818E-1,-8.22382E-1,3.7697025E-2,-3.4612212E-2,1.2675339E0,-1.0767907E0,1.3380136E0,-6.4805046E-2,9.015161E-3,-6.567753E-2,-2.6241645E-2,-5.969737E-2,1.7645199E-2,3.2121446E-2,-5.2749414E-2,-1.462418E-2,6.596527E-2,-1.1972019E-3,-6.263367E-2,-1.7445648E-2,6.7832954E-2],"categories":[],"categories_nodes":[],"categories_segments":[],"categories_sizes":[],"default_left":[0,0,0,0,0,0,0,0,0,0,0,0,0,0,0,0,0,0,0,0,0,0,0,0,0,0,0,0,0,0,0,0,0,0,0,0,0],"id":13,"left_children":[1,3,5,7,9,-1,11,13,15,17,19,-1,21,-1,23,25,27,29,-1,-1,31,33,35,-1,-1,-1,-1,-1,-1,-1,-1,-1,-1,-1,-1,-1,-1],"loss_changes":[1.2884352E3,1.6218286E2,1.05449524E2,2.6307556E1,3.555313E1,0E0,8.992639E1,8.818764E1,1.2973145E1,5.5339003E0,1.1297367E1,0E0,3.9738342E1,0E0,5.686897E1,6.0076904E-1,2.0597736E1,5.637148E0,0E0,0E0,3.7113724E0,1.3051558E0,1.6040283E1,0E0,0E0,0E0,0E0,0E0,0E0,0E0,0E0,0E0,0E0,0E0,0E0,0E0,0E0],"parents":[2147483647,0,0,1,1,2,2,3,3,4,4,6,6,7,7,8,8,9,9,10,10,12,12,14,14,15,15,16,16,17,17,20,20,21,21,22,22],"right_children":[2,4,6,8,10,-1,12,14,16,18,20,-1,22,-1,24,26,28,30,-1,-1,32,34,36,-1,-1,-1,-1,-1,-1,-1,-1,-1,-1,-1,-1,-1,-1],"split_conditions":[6.2829834E-1,8.270801E-1,3.2933858E-1,8.659495E-1,9.2431766E-1,-6.998519E-2,2.3603754E-1,5.272531E-1,7.9137254E-1,8.66608E-1,7.676589E-1,-6.802605E-2,4.2361957E-1,-6.811147E-2,4.7722557E-1,8.736523E-1,5.6071055E-1,6.1528385E-1,3.7697025E-2,-3.4612212E-2,5.029157E-1,7.114948E-1,7.1774E-1,-6.4805046E-2,9.015161E-3,-6.567753E-2,-2.6241645E-2,-5.969737E-2,1.7645199E-2,3.2121446E-2,-5.2749414E-2,-1.462418E-2,6.596527E-2,-1.1972019E-3,-6.263367E-2,-1.7445648E-2,6.7832954E-2],"split_indices":[6,7,7,8,8,0,8,8,7,0,0,0,0,0,0,2,6,1,0,0,6,7,3,0,0,0,0,0,0,0,0,0,0,0,0,0,0],"split_type":[0,0,0,0,0,0,0,0,0,0,0,0,0,0,0,0,0,0,0,0,0,0,0,0,0,0,0,0,0,0,0,0,0,0,0,0,0],"sum_hessian":[1.2127893E3,6.856566E2,5.271327E2,6.2755054E2,5.810609E1,1.4800061E1,5.1233264E2,2.7253476E2,3.550158E2,1.5377955E1,4.2728134E1,1.220255E1,5.001301E2,1.4269698E2,1.2983778E2,3.191633E2,3.58525E1,1.3555448E1,1.8225077E0,2.552923E0,4.0175213E1,6.2101097E0,4.9392E2,3.4873306E1,9.496448E1,3.164103E2,2.7530031E0,2.3018652E1,1.2833849E1,1.6161379E0,1.193931E1,1.1411049E0,3.9034107E1,1.0515563E0,5.1585536E0,5.2059283E0,4.8871408E2],"tree_param":{"num_deleted":"0","num_feature":"9","num_nodes":"37","size_leaf_vector":"1"}},{"base_weights":[5.8816676E-4,-1.067486E0,1.160206E0,-1.2438698E0,9.9362916E-1,-7.014979E-2,1.2391168E0,-1.2834507E0,-6.68583E-1,-1.0561472E0,1.1396923E0,-6.56271E-2,1.2977815E0,-1.2900692E0,2.244206E-1,-1.3516875E-1,-6.810544E-2,-1.738905E-2,-6.0883533E-2,2.9661766E-1,1.2505732E0,3.5667282E-1,1.3162299E0,-6.49193E-2,-4.2296078E-2,2.5900332E-2,-8.926599E-3,1.59192E-2,-5.1125772E-2,4.6151157E-2,-3.453485E-2,1.7392319E-2,6.322392E-2,-5.7979584E-2,5.32429E-2,5.1981308E-2,6.6593975E-2],"categories":[],"categories_nodes":[],"categories_segments":[],"categories_sizes":[],"default_left":[0,0,0,0,0,0,0,0,0,0,0,0,0,0,0,0,0,0,0,0,0,0,0,0,0,0,0,0,0,0,0,0,0,0,0,0,0],"id":14,"left_children":[1,3,5,7,9,-1,11,13,15,17,19,-1,21,23,25,27,-1,-1,-1,29,31,33,35,-1,-1,-1,-1,-1,-1,-1,-1,-1,-1,-1,-1,-1,-1],"loss_changes":[1.4763073E3,2.2680573E2,1.1733008E2,1.2166626E1,1.6014233E1,0E0,8.477496E1,5.619751E0,1.42097E1,1.2397289E-2,3.9907265E0,0E0,8.957764E0,8.664551E-1,4.6937588E-1,9.62369E0,0E0,0E0,0E0,4.802339E0,7.386017E-2,1.3917486E1,9.1900635E-1,0E0,0E0,0E0,0E0,0E0,0E0,0E0,0E0,0E0,0E0,0E0,0E0,0E0,0E0],"parents":[2147483647,0,0,1,1,2,2,3,3,4,4,6,6,7,7,8,8,9,9,10,10,12,12,13,13,14,14,15,15,19,19,20,20,21,21,22,22],"right_children":[2,4,6,8,10,-1,12,14,16,18,20,-1,22,24,26,28,-1,-1,-1,30,32,34,36,-1,-1,-1,-1,-1,-1,-1,-1,-1,-1,-1,-1,-1,-1],"split_conditions":[6.7150277E-1,5.0239134E-1,3.8922387E-1,4.5054165E-1,4.8235852E-1,-7.014979E-2,4.724103E-1,7.041015E-1,7.2792554E-1,5.2689445E-1,5.181849E-1,-6.56271E-2,5.078706E-1,6.5952945E-1,7.730426E-1,7.0387393E-1,-6.810544E-2,-1.738905E-2,-6.0883533E-2,8.1138E-1,5.5778176E-1,4.2258087E-1,7.021505E-1,-6.49193E-2,-4.2296078E-2,2.5900332E-2,-8.926599E-3,1.59192E-2,-5.1125772E-2,4.6151157E-2,-3.453485E-2,1.7392319E-2,6.322392E-2,-5.7979584E-2,5.32429E-2,5.1981308E-2,6.6593975E-2],"split_indices":[4,5,7,5,7,0,8,6,1,5,5,0,6,4,8,7,0,0,0,8,8,5,4,0,0,0,0,0,0,0,0,0,0,0,0,0,0],"split_type":[0,0,0,0,0,0,0,0,0,0,0,0,0,0,0,0,0,0,0,0,0,0,0,0,0,0,0,0,0,0,0,0,0,0,0,0,0],"sum_hessian":[1.1899567E3,6.1946936E2,5.7048724E2,5.710014E2,4.8467976E1,1.6537361E1,5.539499E2,5.330925E2,3.790888E1,2.8095417E0,4.5658436E1,1.1969164E1,5.419807E2,5.309066E2,2.1858933E0,2.2103344E1,1.5805532E1,1.1071653E0,1.7023765E0,5.73417E0,3.9924263E1,1.0811076E1,5.311697E2,5.192601E2,1.1646528E1,1.0993752E0,1.086518E0,1.505131E1,7.0520353E0,3.5481503E0,2.18602E0,1.0002979E0,3.8923965E1,3.23893E0,7.5721464E0,3.205386E1,4.9911578E2],"tree_param":{"num_deleted":"0","num_feature":"9","num_nodes":"37","size_leaf_vector":"1"}},{"base_weights":[1.8087251E-3,-1.0293884E0,1.1353099E0,-1.2008907E0,9.6752536E-1,-6.854577E-2,1.2159079E0,-1.2237929E0,7.095439E-1,-9.058675E-1,1.14868E0,-6.380459E-2,1.2738683E0,-1.2661749E0,-5.913586E-1,6.480651E-2,-2.6339272E-2,-7.1307244E-3,-5.508063E-2,-4.340674E-2,1.2836757E0,-6.062761E-2,1.3051013E0,-6.372647E-2,-4.2929124E-2,-6.570722E-2,3.6680915E-3,-1.1938035E-2,6.666412E-2,-4.141085E-2,6.560517E-2],"categories":[],"categories_nodes":[],"categories_segments":[],"categories_sizes":[],"default_left":[0,0,0,0,0,0,0,0,0,0,0,0,0,0,0,0,0,0,0,0,0,0,0,0,0,0,0,0,0,0,0],"id":15,"left_children":[1,3,5,7,9,-1,11,13,15,17,19,-1,21,23,25,-1,-1,-1,-1,-1,27,-1,29,-1,-1,-1,-1,-1,-1,-1,-1],"loss_changes":[1.3423788E3,2.0711377E2,1.1217627E2,2.511847E1,1.7369926E1,0E0,7.8259705E1,1.394104E1,5.903303E0,5.602703E-1,1.3179558E1,0E0,4.188788E1,6.517334E-1,1.7535128E1,0E0,0E0,0E0,0E0,0E0,3.485611E0,0E0,8.750549E0,0E0,0E0,0E0,0E0,0E0,0E0,0E0,0E0],"parents":[2147483647,0,0,1,1,2,2,3,3,4,4,6,6,7,7,8,8,9,9,10,10,12,12,13,13,14,14,20,20,22,22],"right_children":[2,4,6,8,10,-1,12,14,16,18,20,-1,22,24,26,-1,-1,-1,-1,-1,28,-1,30,-1,-1,-1,-1,-1,-1,-1,-1],"split_conditions":[6.7150277E-1,5.0239134E-1,3.8922387E-1,6.9239646E-1,4.1328615E-1,-6.854577E-2,4.724103E-1,4.534355E-1,7.3674E-1,6.209845E-1,4.8235852E-1,-6.380459E-2,3.71166E-1,6.5952945E-1,5.371156E-1,6.480651E-2,-2.6339272E-2,-7.1307244E-3,-5.508063E-2,-4.340674E-2,5.1525736E-1,-6.062761E-2,1.7548251E-1,-6.372647E-2,-4.2929124E-2,-6.570722E-2,3.6680915E-3,-1.1938035E-2,6.666412E-2,-4.141085E-2,6.560517E-2],"split_indices":[4,5,7,6,0,0,8,5,2,2,7,0,0,4,0,0,0,0,0,0,8,0,5,0,0,0,0,0,0,0,0],"split_type":[0,0,0,0,0,0,0,0,0,0,0,0,0,0,0,0,0,0,0,0,0,0,0,0,0,0,0,0,0,0,0],"sum_hessian":[1.1464482E3,6.003629E2,5.460853E2,5.532467E2,4.711621E1,1.651563E1,5.295697E2,5.470481E2,6.198592E0,3.8016176E0,4.3314594E1,1.15593815E1,5.180103E2,5.117515E2,3.5296597E1,4.1711745E0,2.0274174E0,1.1287903E0,2.6728272E0,2.3766725E0,4.0937923E1,5.957E0,5.1205334E2,4.9938852E2,1.2362983E1,1.6441689E1,1.8854908E1,1.1714954E0,3.9766426E1,1.2915095E0,5.107618E2],"tree_param":{"num_deleted":"0","num_feature":"9","num_nodes":"31","size_leaf_vector":"1"}},{"base_weights":[-1.1861226E-2,-1.0168978E0,1.1217382E0,-1.0896057E0,4.835583E-1,-6.692521E-2,1.2006594E0,-1.1991342E0,-6.409748E-1,-5.6362208E-2,7.9316175E-1,-6.268074E-2,1.2571342E0,-1.2122172E0,-2.1871778E-1,9.447703E-3,-1.0009491E0,-5.0938595E-2,1.0173311E0,-1.1010804E0,1.2913957E0,-6.330376E-2,-5.3540397E-2,3.220075E-2,-5.2617427E-2,-6.456145E-2,5.581185E-2,-5.5827018E-2,6.3062767E-3,-3.7493747E-2,5.7173796E-2,-6.051615E-2,-1.2576336E-2,3.9735246E-3,6.473242E-2],"categories":[],"categories_nodes":[],"categories_segments":[],"categories_sizes":[],"default_left":[0,0,0,0,0,0,0,0,0,0,0,0,0,0,0,0,0,0,0,0,0,0,0,0,0,0,0,0,0,0,0,0,0,0,0],"id":16,"left_children":[1,3,5,7,9,-1,11,13,15,-1,17,-1,19,21,23,25,27,-1,29,31,33,-1,-1,-1,-1,-1,-1,-1,-1,-1,-1,-1,-1,-1,-1],"loss_changes":[1.2648728E3,6.472589E1,1.0291095E2,2.6826233E1,1.4803236E1,0E0,7.171704E1,5.5098877E0,2.6314098E1,0E0,1.0776962E1,0E0,4.1429443E1,2.0263672E0,5.8193207E0,6.048819E1,9.564102E0,0E0,5.7263374E0,4.0376854E-1,1.822876E0,0E0,0E0,0E0,0E0,0E0,0E0,0E0,0E0,0E0,0E0,0E0,0E0,0E0,0E0],"parents":[2147483647,0,0,1,1,2,2,3,3,4,4,6,6,7,7,8,8,10,10,12,12,13,13,14,14,15,15,16,16,18,18,19,19,20,20],"right_children":[2,4,6,8,10,-1,12,14,16,-1,18,-1,20,22,24,26,28,-1,30,32,34,-1,-1,-1,-1,-1,-1,-1,-1,-1,-1,-1,-1,-1,-1],"split_conditions":[6.7150277E-1,6.607687E-1,3.4219548E-1,6.0722584E-1,3.2933858E-1,-6.692521E-2,4.724103E-1,6.423991E-1,8.2071745E-1,-5.6362208E-2,2.0800704E-1,-6.268074E-2,4.6616283E-1,5.268814E-1,6.903225E-1,4.5036024E-1,8.167988E-1,-5.0938595E-2,4.0307194E-1,7.595443E-1,3.5148817E-1,-6.330376E-2,-5.3540397E-2,3.220075E-2,-5.2617427E-2,-6.456145E-2,5.581185E-2,-5.5827018E-2,6.3062767E-3,-3.7493747E-2,5.7173796E-2,-6.051615E-2,-1.2576336E-2,3.9735246E-3,6.473242E-2],"split_indices":[4,6,7,4,7,0,8,6,8,0,8,0,0,6,0,8,7,0,0,2,6,0,0,0,0,0,0,0,0,0,0,0,0,0,0],"split_type":[0,0,0,0,0,0,0,0,0,0,0,0,0,0,0,0,0,0,0,0,0,0,0,0,0,0,0,0,0,0,0,0,0,0,0],"sum_hessian":[1.1082095E3,5.87469E2,5.207405E2,5.6057874E2,2.6890255E1,1.5689376E1,5.050511E2,4.4923077E2,1.1134798E2,3.909421E0,2.2980835E1,1.0883416E1,4.9416766E2,4.4308173E2,6.149039E0,4.0016884E1,7.133109E1,2.13987E0,2.0840965E1,6.630824E0,4.8753683E2,3.151128E2,1.2796892E2,3.133552E0,3.0154867E0,1.8320433E1,2.1696451E1,6.4704445E1,6.626648E0,1.0591009E0,1.9781864E1,5.499053E0,1.1317711E0,1.3730397E0,4.8616382E2],"tree_param":{"num_deleted":"0","num_feature":"9","num_nodes":"35","size_leaf_vector":"1"}},{"base_weights":[-1.9118287E-2,-9.998363E-1,1.0994277E0,-1.1761131E0,9.7285396E-1,3.3902362E-1,1.2143826E0,-1.1966574E0,3.8699296E-1,-8.3846354E-1,1.136796E0,-5.950983E-1,1.1558859E0,9.963208E-1,6.325592E-2,-6.1642148E-2,-6.691208E-1,5.1068928E-2,-2.8606337E-1,-5.263796E-2,-4.266809E-3,-1.7280705E-2,1.1829152E0,-8.398118E-1,5.3187437E-2,5.69555E-1,6.1796E-2,-3.053508E-1,1.1237048E0,-6.332085E-2,-6.763264E-3,-4.680693E-2,2.4076823E-2,6.218365E-2,1.8437376E-2,2.0593883E-2,-4.9714502E-2,3.9808583E-2,-2.3226552E-3,3.620713E-2,-4.2301174E-2,1.9139744E-2,6.0777586E-2],"categories":[],"categories_nodes":[],"categories_segments":[],"categories_sizes":[],"default_left":[0,0,0,0,0,0,0,0,0,0,0,0,0,0,0,0,0,0,0,0,0,0,0,0,0,0,0,0,0,0,0,0,0,0,0,0,0,0,0,0,0,0,0],"id":17,"left_children":[1,3,5,7,9,11,13,15,17,19,21,23,25,27,-1,-1,29,-1,31,-1,-1,-1,33,35,-1,37,-1,39,41,-1,-1,-1,-1,-1,-1,-1,-1,-1,-1,-1,-1,-1,-1],"loss_changes":[1.1689492E3,1.9858209E2,4.3104736E1,1.7214966E1,1.4945839E1,5.1632088E1,3.5197144E0,9.008484E0,3.504283E0,6.3424087E-1,3.3920326E0,1.3805001E1,9.8342896E-1,1.4646004E1,0E0,0E0,1.1069953E1,0E0,2.6620412E0,0E0,0E0,0E0,1.6459389E0,5.877043E0,0E0,8.9877605E-1,0E0,5.330198E0,4.895973E0,0E0,0E0,0E0,0E0,0E0,0E0,0E0,0E0,0E0,0E0,0E0,0E0,0E0,0E0],"parents":[2147483647,0,0,1,1,2,2,3,3,4,4,5,5,6,6,7,7,8,8,9,9,10,10,11,11,12,12,13,13,16,16,18,18,22,22,23,23,25,25,27,27,28,28],"right_children":[2,4,6,8,10,12,14,16,18,20,22,24,26,28,-1,-1,30,-1,32,-1,-1,-1,34,36,-1,38,-1,40,42,-1,-1,-1,-1,-1,-1,-1,-1,-1,-1,-1,-1,-1,-1],"split_conditions":[6.7357045E-1,5.0239134E-1,7.138477E-1,6.9239646E-1,4.1328615E-1,4.8348093E-1,4.7215885E-1,4.534355E-1,8.5624236E-1,5.558049E-1,3.9881474E-1,7.009269E-1,5.2689445E-1,6.0094625E-1,6.325592E-2,-6.1642148E-2,5.238807E-1,5.1068928E-2,7.067384E-1,-5.263796E-2,-4.266809E-3,-1.7280705E-2,8.435147E-1,6.4751256E-1,5.3187437E-2,8.1838447E-1,6.1796E-2,7.693657E-1,7.383773E-1,-6.332085E-2,-6.763264E-3,-4.680693E-2,2.4076823E-2,6.218365E-2,1.8437376E-2,2.0593883E-2,-4.9714502E-2,3.9808583E-2,-2.3226552E-3,3.620713E-2,-4.2301174E-2,1.9139744E-2,6.0777586E-2],"split_indices":[4,5,4,6,0,5,5,5,3,6,1,6,5,6,0,0,0,0,6,0,0,0,1,2,0,0,0,0,4,0,0,0,0,0,0,0,0,0,0,0,0,0,0],"split_type":[0,0,0,0,0,0,0,0,0,0,0,0,0,0,0,0,0,0,0,0,0,0,0,0,0,0,0,0,0,0,0,0,0,0,0,0,0,0,0,0,0,0,0],"sum_hessian":[1.0636063E3,5.6677545E2,4.968309E2,5.2065436E2,4.6121143E1,6.576402E1,4.3106686E2,5.141314E2,6.522893E0,3.486465E0,4.2634678E1,3.0806625E1,3.4957397E1,8.52595E1,3.4580737E2,4.7987802E2,3.4253426E1,3.0914967E0,3.4313962E0,2.40445E0,1.082015E0,1.0904483E0,4.1544228E1,2.7276524E1,3.5301013E0,5.173393E0,2.9784004E1,7.475379E0,7.778412E1,1.5518535E1,1.873489E1,1.7390447E0,1.6923516E0,3.816835E1,3.3758774E0,2.8134842E0,2.446304E1,3.5682411E0,1.6051514E0,2.4572327E0,5.0181465E0,9.148972E0,6.863515E1],"tree_param":{"num_deleted":"0","num_feature":"9","num_nodes":"43","size_leaf_vector":"1"}},{"base_weights":[1.6951334E-3,-9.617489E-1,1.082405E0,-1.0489615E0,2.2022292E-1,-6.532556E-2,1.1670644E0,-1.1484782E0,-6.187141E-1,9.2510176E-1,-4.049555E-1,-6.1195523E-2,1.2263604E0,-1.0203426E0,-1.2348052E0,9.315307E-2,-1.0506241E0,-4.4898596E-2,1.1895925E0,-6.13336E-1,3.9325897E-2,-5.7098117E-2,1.2554812E0,-5.862957E-2,-1.4686415E-2,-6.191213E-2,-2.4815382E-2,-5.9052974E-2,5.0074067E-2,-5.6265343E-2,2.1891268E-2,7.613502E-3,6.300336E-2,-4.296578E-2,8.933965E-3,-3.6109742E-3,6.300517E-2],"categories":[],"categories_nodes":[],"categories_segments":[],"categories_sizes":[],"default_left":[0,0,0,0,0,0,0,0,0,0,0,0,0,0,0,0,0,0,0,0,0,0,0,0,0,0,0,0,0,0,0,0,0,0,0,0,0],"id":18,"left_children":[1,3,5,7,9,-1,11,13,15,17,19,-1,21,23,25,27,29,-1,31,33,-1,-1,35,-1,-1,-1,-1,-1,-1,-1,-1,-1,-1,-1,-1,-1,-1],"loss_changes":[1.0914391E3,5.7358704E1,1.01444824E2,2.139502E1,1.7520422E1,0E0,6.922351E1,3.3652344E0,3.0583477E1,1.0033381E1,5.774555E0,0E0,3.361493E1,1.8911957E1,7.5683594E-3,4.5581E1,7.361603E0,0E0,1.0265903E0,3.797483E0,0E0,0E0,2.9227295E0,0E0,0E0,0E0,0E0,0E0,0E0,0E0,0E0,0E0,0E0,0E0,0E0,0E0,0E0],"parents":[2147483647,0,0,1,1,2,2,3,3,4,4,6,6,7,7,8,8,9,9,10,10,12,12,13,13,14,14,15,15,16,16,18,18,19,19,22,22],"right_children":[2,4,6,8,10,-1,12,14,16,18,20,-1,22,24,26,28,30,-1,32,34,-1,-1,36,-1,-1,-1,-1,-1,-1,-1,-1,-1,-1,-1,-1,-1,-1],"split_conditions":[6.7150277E-1,6.423991E-1,3.8922387E-1,6.083455E-1,7.1402544E-1,-6.532556E-2,4.724103E-1,8.659495E-1,8.30681E-1,3.6782894E-1,8.5043037E-1,-6.1195523E-2,3.9872208E-1,5.1788396E-1,8.519194E-1,5.8420336E-1,8.3587015E-1,-4.4898596E-2,4.532109E-1,6.9239646E-1,3.9325897E-2,-5.7098117E-2,3.5148817E-1,-5.862957E-2,-1.4686415E-2,-6.191213E-2,-2.4815382E-2,-5.9052974E-2,5.0074067E-2,-5.6265343E-2,2.1891268E-2,7.613502E-3,6.300336E-2,-4.296578E-2,8.933965E-3,-3.6109742E-3,6.300517E-2],"split_indices":[4,6,7,4,0,0,8,8,8,0,7,0,0,6,7,8,7,0,4,6,0,0,6,0,0,0,0,0,0,0,0,0,0,0,0,0,0],"split_type":[0,0,0,0,0,0,0,0,0,0,0,0,0,0,0,0,0,0,0,0,0,0,0,0,0,0,0,0,0,0,0,0,0,0,0,0,0],"sum_hessian":[1.046248E3,5.5319196E2,4.9305606E2,5.1528394E2,3.790803E1,1.6381144E1,4.766749E2,4.1713162E2,9.815228E1,1.7592747E1,2.0315285E1,1.1060139E1,4.6561478E2,1.7306717E2,2.4406445E2,3.7360172E1,6.0792114E1,1.9255149E0,1.5667232E1,1.7704176E1,2.6111095E0,5.191459E0,4.604233E2,1.4257864E2,3.0488523E1,2.4226015E2,1.8043123E0,1.542357E1,2.1936604E1,5.8119926E1,2.6721845E0,1.1977733E0,1.4469459E1,1.3443878E1,4.2602973E0,1.5466044E0,4.588767E2],"tree_param":{"num_deleted":"0","num_feature":"9","num_nodes":"37","size_leaf_vector":"1"}},{"base_weights":[1.3374142E-2,-9.1909677E-1,1.0989953E0,-1.0096447E0,1.7369215E-1,-6.39125E-2,1.1709548E0,-1.1338607E0,-5.54197E-1,8.278464E-1,-3.517931E-1,-9.6728194E-1,1.1949689E0,-6.207783E-2,-1.0515319E0,3.3533204E-1,-7.837924E-1,1.2226859E0,-5.7725202E-2,-5.7009333E-1,4.659874E-2,-1.1613372E-2,-5.4806788E-2,8.3573925E-1,6.1155487E-2,-2.2531727E-2,-5.8069672E-2,-4.9685467E-2,4.49606E-2,4.4541217E-2,-4.2453643E-2,6.529265E-2,5.59374E-3,-4.1957255E-2,4.0120244E-2,-4.48307E-2,1.2588957E-2,-1.3922107E-2,4.750127E-2],"categories":[],"categories_nodes":[],"categories_segments":[],"categories_sizes":[],"default_left":[0,0,0,0,0,0,0,0,0,0,0,0,0,0,0,0,0,0,0,0,0,0,0,0,0,0,0,0,0,0,0,0,0,0,0,0,0,0,0],"id":19,"left_children":[1,3,5,7,9,-1,11,13,15,17,19,21,23,-1,25,27,29,31,33,35,-1,-1,-1,37,-1,-1,-1,-1,-1,-1,-1,-1,-1,-1,-1,-1,-1,-1,-1],"loss_changes":[1.024455E3,5.404422E1,8.148566E1,2.7822388E1,1.4904217E1,0E0,2.4487122E1,2.189392E0,2.2671413E1,6.796317E0,7.334459E0,2.7568102E-1,3.5246582E0,0E0,1.4655594E1,1.8287876E1,1.0323036E1,1.087101E0,5.301872E0,5.960022E0,0E0,0E0,0E0,4.8272038E0,0E0,0E0,0E0,0E0,0E0,0E0,0E0,0E0,0E0,0E0,0E0,0E0,0E0,0E0,0E0],"parents":[2147483647,0,0,1,1,2,2,3,3,4,4,6,6,7,7,8,8,9,9,10,10,11,11,12,12,14,14,15,15,16,16,17,17,18,18,19,19,23,23],"right_children":[2,4,6,8,10,-1,12,14,16,18,20,22,24,-1,26,28,30,32,34,36,-1,-1,-1,38,-1,-1,-1,-1,-1,-1,-1,-1,-1,-1,-1,-1,-1,-1,-1],"split_conditions":[6.8374103E-1,6.423991E-1,3.8922387E-1,6.0722584E-1,7.10715E-1,-6.39125E-2,4.6616283E-1,5.166977E-1,6.686261E-1,6.957299E-1,8.429379E-1,6.885817E-1,7.0952165E-1,-6.207783E-2,6.412824E-1,4.439932E-1,7.988635E-1,7.978536E-1,6.888213E-1,6.9239646E-1,4.659874E-2,-1.1613372E-2,-5.4806788E-2,5.156525E-1,6.1155487E-2,-2.2531727E-2,-5.8069672E-2,-4.9685467E-2,4.49606E-2,4.4541217E-2,-4.2453643E-2,6.529265E-2,5.59374E-3,-4.1957255E-2,4.0120244E-2,-4.48307E-2,1.2588957E-2,-1.3922107E-2,4.750127E-2],"split_indices":[4,6,7,4,1,0,0,2,2,7,7,7,4,0,7,0,3,0,6,6,0,0,0,6,0,0,0,0,0,0,0,0,0,0,0,0,0,0,0],"split_type":[0,0,0,0,0,0,0,0,0,0,0,0,0,0,0,0,0,0,0,0,0,0,0,0,0,0,0,0,0,0,0,0,0,0,0,0,0,0,0],"sum_hessian":[1.00999915E3,5.434058E2,4.665933E2,5.018951E2,4.1510696E1,1.3216329E1,4.5337698E2,3.9317377E2,1.0872135E2,1.8235146E1,2.327555E1,4.598998E0,4.4877798E2,1.6424353E2,2.2893024E2,2.2210386E1,8.651097E1,1.23487E1,5.8864465E0,2.0367971E1,2.9075801E0,1.1040108E0,3.4949872E0,3.4831917E1,4.1394608E2,3.617419E1,1.9275604E2,6.3891516E0,1.5821235E1,2.7713854E0,8.3739586E1,1.1325191E1,1.0235088E0,3.0971305E0,2.789316E0,1.4511698E1,5.856273E0,3.1068382E0,3.172508E1],"tree_param":{"num_deleted":"0","num_feature":"9","num_nodes":"39","size_leaf_vector":"1"}},{"base_weights":[-1.271892E-2,-9.185671E-1,1.0654957E0,-1.1198684E0,9.8065597E-1,-6.316306E-2,1.1459183E0,-1.164918E0,-4.670888E-1,-5.0755735E-2,1.0675744E0,6.334306E-1,6.002543E-2,-1.1745371E0,3.0135352E-2,7.293282E-1,-8.668932E-1,3.7854347E-1,1.2073178E0,-1.2688793E-1,5.9576254E-2,-5.9298784E-2,-3.9371066E-2,-4.4296917E-2,5.896448E-2,-2.0669397E-2,-6.268331E-2,5.2695878E-2,-2.5542683E-3,4.6056407E-3,6.186191E-2,-2.7231483E-2,4.669748E-2],"categories":[],"categories_nodes":[],"categories_segments":[],"categories_sizes":[],"default_left":[0,0,0,0,0,0,0,0,0,0,0,0,0,0,0,0,0,0,0,0,0,0,0,0,0,0,0,0,0,0,0,0,0],"id":20,"left_children":[1,3,5,7,9,-1,11,13,15,-1,17,19,-1,21,-1,23,25,27,29,31,-1,-1,-1,-1,-1,-1,-1,-1,-1,-1,-1,-1,-1],"loss_changes":[9.510758E2,2.0340979E2,8.471243E1,1.3539856E1,9.973293E0,0E0,1.1277283E1,8.314026E0,1.6219818E1,0E0,4.3183136E0,1.8625538E1,0E0,1.0378418E0,0E0,7.371786E0,3.846159E0,2.9029572E0,1.2466049E0,9.076467E0,0E0,0E0,0E0,0E0,0E0,0E0,0E0,0E0,0E0,0E0,0E0,0E0,0E0],"parents":[2147483647,0,0,1,1,2,2,3,3,4,4,6,6,7,7,8,8,10,10,11,11,13,13,15,15,16,16,17,17,18,18,19,19],"right_children":[2,4,6,8,10,-1,12,14,16,-1,18,20,-1,22,-1,24,26,28,30,32,-1,-1,-1,-1,-1,-1,-1,-1,-1,-1,-1,-1,-1],"split_conditions":[6.7818236E-1,5.0239134E-1,3.8922387E-1,4.5732492E-1,3.77686E-1,-6.316306E-2,7.0952165E-1,7.041015E-1,8.508545E-1,-5.0755735E-2,5.342857E-1,5.0239134E-1,6.002543E-2,6.5952945E-1,3.0135352E-2,4.673649E-1,7.2792554E-1,8.231432E-1,4.1197383E-1,6.70197E-1,5.9576254E-2,-5.9298784E-2,-3.9371066E-2,-4.4296917E-2,5.896448E-2,-2.0669397E-2,-6.268331E-2,5.2695878E-2,-2.5542683E-3,4.6056407E-3,6.186191E-2,-2.7231483E-2,4.669748E-2],"split_indices":[4,5,7,5,7,0,4,6,3,0,5,5,0,4,0,2,1,3,4,6,0,0,0,0,0,0,0,0,0,0,0,0,0],"split_type":[0,0,0,0,0,0,0,0,0,0,0,0,0,0,0,0,0,0,0,0,0,0,0,0,0,0,0,0,0,0,0,0,0],"sum_hessian":[9.7176355E2,5.2817346E2,4.435901E2,4.779276E2,5.024587E1,1.4316826E1,4.292733E2,4.4634033E2,3.1587292E1,1.6512764E0,4.8594593E1,4.253773E1,3.8673553E2,4.4425827E2,2.0820608E0,7.705206E0,2.3882086E1,8.819119E0,3.9775475E1,1.8333618E1,2.4204113E1,4.2950363E2,1.4754618E1,1.4676676E0,6.2375383E0,1.1944979E1,1.1937107E1,2.8639374E0,5.955182E0,1.1458403E0,3.8629635E1,1.3502961E1,4.830657E0],"tree_param":{"num_deleted":"0","num_feature":"9","num_nodes":"33","size_leaf_vector":"1"}},{"base_weights":[-9.682437E-3,-9.35094E-1,1.0516396E0,-1.1150159E0,8.892981E-1,-6.1876398E-2,1.123195E0,-1.1635909E0,-4.6372905E-1,-6.7803156E-1,1.0468187E0,-6.068815E-2,1.1813097E0,-5.9101906E-2,-6.2402207E-1,-5.971353E-2,9.278538E-2,-5.4860096E-2,2.1456558E-2,-4.6955828E-2,1.1394083E0,-5.4980338E-2,1.2098176E0,8.623846E-2,-5.018547E-2,5.627271E-2,-4.413097E-2,-4.4925313E-2,6.1218042E-2,3.0354836E-3,6.0627665E-2],"categories":[],"categories_nodes":[],"categories_segments":[],"categories_sizes":[],"default_left":[0,0,0,0,0,0,0,0,0,0,0,0,0,0,0,0,0,0,0,0,0,0,0,0,0,0,0,0,0,0,0],"id":21,"left_children":[1,3,5,7,9,-1,11,13,15,17,19,-1,21,-1,23,-1,25,-1,-1,-1,27,-1,29,-1,-1,-1,-1,-1,-1,-1,-1],"loss_changes":[9.178802E2,1.6486511E2,7.269562E1,1.3850708E1,1.1911392E1,0E0,5.88338E1,3.4690552E0,1.3622034E1,2.6754637E0,8.72319E0,0E0,2.8178528E1,0E0,1.6080181E1,0E0,2.092858E1,0E0,0E0,0E0,8.063011E0,0E0,1.2098389E0,0E0,0E0,0E0,0E0,0E0,0E0,0E0,0E0],"parents":[2147483647,0,0,1,1,2,2,3,3,4,4,6,6,7,7,8,8,9,9,10,10,12,12,14,14,16,16,20,20,22,22],"right_children":[2,4,6,8,10,-1,12,14,16,18,20,-1,22,-1,24,-1,26,-1,-1,-1,28,-1,30,-1,-1,-1,-1,-1,-1,-1,-1],"split_conditions":[6.7818236E-1,5.0239134E-1,3.8922387E-1,4.534355E-1,4.6616283E-1,-6.1876398E-2,4.724103E-1,6.5952945E-1,5.0892466E-1,5.5717844E-1,2.7637812E-1,-6.068815E-2,3.8035557E-1,-5.9101906E-2,6.43327E-1,-5.971353E-2,7.2746664E-1,-5.4860096E-2,2.1456558E-2,-4.6955828E-2,5.1525736E-1,-5.4980338E-2,1.7971939E-1,8.623846E-2,-5.018547E-2,5.627271E-2,-4.413097E-2,-4.4925313E-2,6.1218042E-2,3.0354836E-3,6.0627665E-2],"split_indices":[4,5,7,5,0,0,8,4,0,5,7,0,0,0,2,0,0,0,0,0,8,0,5,0,0,0,0,0,0,0,0],"split_type":[0,0,0,0,0,0,0,0,0,0,0,0,0,0,0,0,0,0,0,0,0,0,0,0,0,0,0,0,0,0,0],"sum_hessian":[9.325517E2,4.9823685E2,4.3431485E2,4.538654E2,4.4371456E1,1.2670545E1,4.2164432E2,4.216321E2,3.223329E1,3.7504172E0,4.0621037E1,9.748372E0,4.1189594E2,4.0654227E2,1.5089828E1,1.3441944E1,1.8791346E1,2.726982E0,1.0234351E0,1.4022259E0,3.921881E1,4.620713E0,4.072752E2,1.6068794E0,1.3482948E1,9.053015E0,9.738332E0,1.1862173E0,3.8032593E1,1.0223455E0,4.0625287E2],"tree_param":{"num_deleted":"0","num_feature":"9","num_nodes":"31","size_leaf_vector":"1"}},{"base_weights":[3.386171E-3,-7.575282E-1,1.1532607E0,-9.923235E-1,1.0107969E0,-5.181817E-2,1.173408E0,-1.0701315E0,2.5601107E-1,-4.7118288E-2,1.1081779E0,-5.1152218E-2,1.1876558E0,-1.130994E0,-7.103771E-1,-5.6075342E-2,5.909482E-1,-3.9967027E-2,1.174827E0,-4.378708E-2,1.1969355E0,-5.7285275E-2,-2.2576038E-2,-6.0422022E-2,-1.7388476E-2,-5.2885722E-2,4.8296247E-2,-3.5706335E-3,6.002007E-2,1.7650886E-2,6.0148474E-2],"categories":[],"categories_nodes":[],"categories_segments":[],"categories_sizes":[],"default_left":[0,0,0,0,0,0,0,0,0,0,0,0,0,0,0,0,0,0,0,0,0,0,0,0,0,0,0,0,0,0,0],"id":22,"left_children":[1,3,5,7,9,-1,11,13,15,-1,17,-1,19,21,23,-1,25,-1,27,-1,29,-1,-1,-1,-1,-1,-1,-1,-1,-1,-1],"loss_changes":[7.925137E2,2.2731738E2,1.7128235E1,4.7061035E1,1.3290749E1,0E0,1.2414581E1,9.128906E0,1.4074699E1,0E0,8.794548E0,0E0,7.865448E0,3.3441467E0,1.1919765E1,0E0,1.5882456E1,0E0,2.0014648E0,0E0,1.3823242E0,0E0,0E0,0E0,0E0,0E0,0E0,0E0,0E0,0E0,0E0],"parents":[2147483647,0,0,1,1,2,2,3,3,4,4,6,6,7,7,8,8,10,10,12,12,13,13,14,14,16,16,18,18,20,20],"right_children":[2,4,6,8,10,-1,12,14,16,-1,18,-1,20,22,24,-1,26,-1,28,-1,30,-1,-1,-1,-1,-1,-1,-1,-1,-1,-1],"split_conditions":[5.0239134E-1,8.5043037E-1,4.1328615E-1,6.529981E-1,1.862253E-1,-5.181817E-2,3.635673E-1,4.2035338E-1,2.8863496E-1,-4.7118288E-2,3.9101174E-1,-5.1152218E-2,4.724103E-1,8.270801E-1,5.000908E-1,-5.6075342E-2,2.0800704E-1,-3.9967027E-2,1.9360526E-1,-4.378708E-2,4.8235852E-1,-5.7285275E-2,-2.2576038E-2,-6.0422022E-2,-1.7388476E-2,-5.2885722E-2,4.8296247E-2,-3.5706335E-3,6.002007E-2,1.7650886E-2,6.0148474E-2],"split_indices":[5,7,0,6,8,0,7,5,7,0,0,0,8,7,0,0,8,0,5,0,7,0,0,0,0,0,0,0,0,0,0],"split_type":[0,0,0,0,0,0,0,0,0,0,0,0,0,0,0,0,0,0,0,0,0,0,0,0,0,0,0,0,0,0,0],"sum_hessian":[9.037769E2,5.440802E2,3.5969672E2,4.8069336E2,6.338686E1,2.8196206E0,3.5687708E2,4.526243E2,2.8069078E1,2.5981836E0,6.0788677E1,1.8437067E0,3.550334E2,3.8529694E2,6.732735E1,5.030677E0,2.3038403E1,1.6811213E0,5.9107555E1,1.1715031E0,3.5386188E2,3.764599E2,8.8370495E0,2.7382795E1,3.9944553E1,3.931593E0,1.910681E1,1.1525306E0,5.7955025E1,2.934539E0,3.5092734E2],"tree_param":{"num_deleted":"0","num_feature":"9","num_nodes":"31","size_leaf_vector":"1"}},{"base_weights":[5.0992565E-3,-8.8622844E-1,1.0154301E0,-1.0610781E0,8.783052E-1,-6.0469806E-2,1.091787E0,-1.0939491E0,-1.4055745E-1,-4.7677904E-2,9.723197E-1,5.102846E-1,5.7877284E-2,-1.1497439E0,-6.9110394E-1,6.502675E-1,-4.7861758E-1,-1.8870533E-2,1.0171442E0,-3.467909E-1,5.6512773E-2,-5.789407E-2,-2.9530017E-2,-1.4333367E-2,-5.8130812E-2,-3.4970637E-2,5.7192404E-2,1.6702434E-2,-4.1691642E-2,6.6731437E-3,5.433783E-2,-3.3509746E-2,4.841673E-2],"categories":[],"categories_nodes":[],"categories_segments":[],"categories_sizes":[],"default_left":[0,0,0,0,0,0,0,0,0,0,0,0,0,0,0,0,0,0,0,0,0,0,0,0,0,0,0,0,0,0,0,0,0],"id":23,"left_children":[1,3,5,7,9,-1,11,13,15,-1,17,19,-1,21,23,25,27,-1,29,31,-1,-1,-1,-1,-1,-1,-1,-1,-1,-1,-1,-1,-1],"loss_changes":[7.9418536E2,1.454924E2,7.1541504E1,1.2759308E1,8.29657E0,0E0,1.4711151E1,8.46344E0,4.551657E0,0E0,2.876316E0,2.2944683E1,0E0,9.5544434E-1,9.700302E0,4.2466974E0,3.6523466E0,0E0,2.324356E0,8.551449E0,0E0,0E0,0E0,0E0,0E0,0E0,0E0,0E0,0E0,0E0,0E0,0E0,0E0],"parents":[2147483647,0,0,1,1,2,2,3,3,4,4,6,6,7,7,8,8,10,10,11,11,13,13,14,14,15,15,16,16,18,18,19,19],"right_children":[2,4,6,8,10,-1,12,14,16,-1,18,20,-1,22,24,26,28,-1,30,32,-1,-1,-1,-1,-1,-1,-1,-1,-1,-1,-1,-1,-1],"split_conditions":[6.7357045E-1,5.0239134E-1,3.8922387E-1,6.529981E-1,3.77686E-1,-6.0469806E-2,7.0952165E-1,4.2501095E-1,6.7304206E-1,-4.7677904E-2,3.9881474E-1,5.0239134E-1,5.7877284E-2,6.637059E-1,7.2792554E-1,3.7395686E-1,7.25981E-1,-1.8870533E-2,5.1086354E-1,7.009269E-1,5.6512773E-2,-5.789407E-2,-2.9530017E-2,-1.4333367E-2,-5.8130812E-2,-3.4970637E-2,5.7192404E-2,1.6702434E-2,-4.1691642E-2,6.6731437E-3,5.433783E-2,-3.3509746E-2,4.841673E-2],"split_indices":[4,5,7,6,7,0,4,5,2,0,1,5,0,4,1,5,1,0,5,6,0,0,0,0,0,0,0,0,0,0,0,0,0],"split_type":[0,0,0,0,0,0,0,0,0,0,0,0,0,0,0,0,0,0,0,0,0,0,0,0,0,0,0,0,0,0,0,0,0],"sum_hessian":[8.7990375E2,4.6754874E2,4.1235504E2,4.2575848E2,4.1790234E1,1.3190219E1,3.9916483E2,4.108973E2,1.48611765E1,1.5937376E0,4.01965E1,4.144324E1,3.577216E2,3.5928195E2,5.1615376E1,4.173821E0,1.0687356E1,1.053529E0,3.9142967E1,1.7580208E1,2.3863033E1,3.5307275E2,6.2092066E0,2.8649462E1,2.2965914E1,1.0059808E0,3.16784E0,3.2687206E0,7.4186354E0,3.0713587E0,3.607161E1,1.4503925E1,3.076282E0],"tree_param":{"num_deleted":"0","num_feature":"9","num_nodes":"33","size_leaf_vector":"1"}},{"base_weights":[9.141719E-3,-8.4376764E-1,1.0376735E0,-1.0531585E0,8.7878454E-1,-5.849578E-2,1.088113E0,-1.123723E0,-5.829181E-1,-6.533343E-1,1.0485802E0,-4.8859373E-2,1.1077805E0,-5.716585E-2,-7.512035E-1,-5.844136E-2,-1.7794518E-1,-5.626708E-2,3.638522E-2,-2.359364E-2,1.1021972E0,8.602789E-1,5.863282E-2,3.1488303E-2,-4.4418503E-2,4.8848115E-2,-4.9625132E-2,2.0616194E-2,5.7718962E-2,6.2014884E-3,5.529057E-2],"categories":[],"categories_nodes":[],"categories_segments":[],"categories_sizes":[],"default_left":[0,0,0,0,0,0,0,0,0,0,0,0,0,0,0,0,0,0,0,0,0,0,0,0,0,0,0,0,0,0,0],"id":24,"left_children":[1,3,5,7,9,-1,11,13,15,17,19,-1,21,-1,23,-1,25,-1,-1,-1,27,29,-1,-1,-1,-1,-1,-1,-1,-1,-1],"loss_changes":[7.437182E2,1.6809259E2,4.406717E1,1.3072144E1,1.3894691E1,0E0,1.6365753E1,1.7588806E0,1.3092943E1,4.5228252E0,4.2779007E0,0E0,4.9832153E0,0E0,4.5064344E0,0E0,3.326125E1,0E0,0E0,0E0,1.1376877E0,1.4551838E1,0E0,0E0,0E0,0E0,0E0,0E0,0E0,0E0,0E0],"parents":[2147483647,0,0,1,1,2,2,3,3,4,4,6,6,7,7,8,8,9,9,10,10,12,12,14,14,16,16,20,20,21,21],"right_children":[2,4,6,8,10,-1,12,14,16,18,20,-1,22,-1,24,-1,26,-1,-1,-1,28,30,-1,-1,-1,-1,-1,-1,-1,-1,-1],"split_conditions":[6.8374103E-1,4.9465293E-1,4.724103E-1,4.2258087E-1,4.7722557E-1,-5.849578E-2,3.71166E-1,6.5239775E-1,5.000908E-1,5.650232E-1,3.9881474E-1,-4.8859373E-2,4.8348093E-1,-5.716585E-2,6.251948E-1,-5.844136E-2,7.336275E-1,-5.626708E-2,3.638522E-2,-2.359364E-2,6.062095E-1,7.383773E-1,5.863282E-2,3.1488303E-2,-4.4418503E-2,4.8848115E-2,-4.9625132E-2,2.0616194E-2,5.7718962E-2,6.2014884E-3,5.529057E-2],"split_indices":[4,5,8,5,0,0,0,4,0,5,1,0,5,0,2,0,1,0,0,0,8,4,0,0,0,0,0,0,0,0,0],"split_type":[0,0,0,0,0,0,0,0,0,0,0,0,0,0,0,0,0,0,0,0,0,0,0,0,0,0,0,0,0,0,0],"sum_hessian":[8.45791E2,4.6246872E2,3.8332227E2,4.126912E2,4.9777534E1,8.06682E0,3.7525543E2,3.576347E2,5.5056484E1,4.6820607E0,4.5095474E1,3.0805364E0,3.721749E2,3.3779788E2,1.9836819E1,2.1730673E1,3.3325813E1,3.6274352E0,1.0546253E0,1.270355E0,4.382512E1,8.0256516E1,2.919184E2,1.467818E0,1.8369001E1,1.37008705E1,1.962494E1,3.7078013E0,4.0117317E1,2.0447668E1,5.9808846E1],"tree_param":{"num_deleted":"0","num_feature":"9","num_nodes":"31","size_leaf_vector":"1"}},{"base_weights":[-1.3247523E-2,-8.688596E-1,9.8874193E-1,-1.0294363E0,7.875489E-1,-5.7681527E-2,1.0420964E0,-1.110175E0,-5.454666E-1,-6.258691E-1,9.773171E-1,-5.2550193E-2,1.0716009E0,-1.116521E0,1.0079931E-2,2.4051081E-2,-1.1003749E0,-5.6094833E-2,3.574485E-2,-1.0466842E-2,1.0427157E0,7.823734E-1,5.7938743E-2,-5.6371935E-2,-3.5514425E-2,-6.075194E-2,4.701705E-2,-5.7540007E-2,2.1767344E-3,3.5013343E-4,5.487149E-2,6.678243E-3,5.3825527E-2],"categories":[],"categories_nodes":[],"categories_segments":[],"categories_sizes":[],"default_left":[0,0,0,0,0,0,0,0,0,0,0,0,0,0,0,0,0,0,0,0,0,0,0,0,0,0,0,0,0,0,0,0,0],"id":25,"left_children":[1,3,5,7,9,-1,11,13,15,17,19,-1,21,23,-1,25,27,-1,-1,-1,29,31,-1,-1,-1,-1,-1,-1,-1,-1,-1,-1,-1],"loss_changes":[7.0027435E2,1.1799814E2,4.4207855E1,1.51058655E1,1.12073765E1,0E0,2.3828888E1,3.0855713E0,1.8815508E1,4.3172765E0,2.9513817E0,0E0,8.24585E0,7.1658325E-1,0E0,3.5565746E1,1.7883034E0,0E0,0E0,0E0,1.89328E0,1.6487724E1,0E0,0E0,0E0,0E0,0E0,0E0,0E0,0E0,0E0,0E0,0E0],"parents":[2147483647,0,0,1,1,2,2,3,3,4,4,6,6,7,7,8,8,9,9,10,10,12,12,13,13,15,15,16,16,20,20,21,21],"right_children":[2,4,6,8,10,-1,12,14,16,18,20,-1,22,24,-1,26,28,-1,-1,-1,30,32,-1,-1,-1,-1,-1,-1,-1,-1,-1,-1,-1],"split_conditions":[6.7357045E-1,5.0239134E-1,4.724103E-1,4.2258087E-1,4.6616283E-1,-5.7681527E-2,3.8035557E-1,7.067384E-1,8.505429E-1,5.6876135E-1,5.684041E-1,-5.2550193E-2,5.0239134E-1,6.423991E-1,1.0079931E-2,5.960417E-1,8.581807E-1,-5.6094833E-2,3.574485E-2,-1.0466842E-2,4.250802E-1,7.383773E-1,5.7938743E-2,-5.6371935E-2,-3.5514425E-2,-6.075194E-2,4.701705E-2,-5.7540007E-2,2.1767344E-3,3.5013343E-4,5.487149E-2,6.678243E-3,5.3825527E-2],"split_indices":[4,5,8,5,0,0,0,6,8,5,8,0,5,6,0,8,2,0,0,0,4,4,0,0,0,0,0,0,0,0,0,0,0],"split_type":[0,0,0,0,0,0,0,0,0,0,0,0,0,0,0,0,0,0,0,0,0,0,0,0,0,0,0,0,0,0,0,0,0],"sum_hessian":[8.148214E2,4.3958597E2,3.752354E2,4.0108246E2,3.8503517E1,8.616834E0,3.666186E2,3.4262912E2,5.8453335E1,4.2856164E0,3.42179E1,4.614805E0,3.6200378E2,3.4112772E2,1.5014206E0,2.9319046E1,2.9134289E1,3.2474408E0,1.0381757E0,1.672345E0,3.2545555E1,8.614963E1,2.7585416E2,3.3047083E2,1.0656888E1,1.2325437E1,1.6993608E1,2.789846E1,1.2358278E0,1.6896306E0,3.0855925E1,2.7326605E1,5.8823025E1],"tree_param":{"num_deleted":"0","num_feature":"9","num_nodes":"33","size_leaf_vector":"1"}},{"base_weights":[-1.6510654E-2,-7.256694E-1,1.1078445E0,-9.275482E-1,1.0415953E0,-5.332868E-2,1.127629E0,-9.8953724E-1,7.389987E-1,-3.8475417E-2,1.116658E0,-3.0106643E-2,1.1412721E0,-1.0273352E0,-1.5140662E-1,-4.0270474E-2,9.406938E-1,1.1747095E-2,5.7210237E-2,3.2987887E-1,5.7401933E-2,-5.3313643E-2,-2.677877E-2,-5.845611E-2,1.0813295E-2,-1.9524684E-2,5.452457E-2,3.566163E-2,-8.0915205E-3],"categories":[],"categories_nodes":[],"categories_segments":[],"categories_sizes":[],"default_left":[0,0,0,0,0,0,0,0,0,0,0,0,0,0,0,0,0,0,0,0,0,0,0,0,0,0,0,0,0],"id":26,"left_children":[1,3,5,7,9,-1,11,13,15,-1,17,-1,19,21,23,-1,25,-1,-1,27,-1,-1,-1,-1,-1,-1,-1,-1,-1],"loss_changes":[6.242096E2,1.7223656E2,1.4228912E1,4.529483E1,7.613991E0,0E0,7.7800293E0,1.3033386E1,5.7547913E0,0E0,8.9987564E-1,0E0,1.2604065E0,7.0534363E0,7.4140215E0,0E0,3.3472528E0,0E0,0E0,8.4534365E-1,0E0,0E0,0E0,0E0,0E0,0E0,0E0,0E0,0E0],"parents":[2147483647,0,0,1,1,2,2,3,3,4,4,6,6,7,7,8,8,10,10,12,12,13,13,14,14,16,16,19,19],"right_children":[2,4,6,8,10,-1,12,14,16,-1,18,-1,20,22,24,-1,26,-1,-1,28,-1,-1,-1,-1,-1,-1,-1,-1,-1],"split_conditions":[5.0239134E-1,8.607944E-1,4.0336058E-1,6.888213E-1,8.4254086E-1,-5.332868E-2,5.272531E-1,4.7215885E-1,3.12956E-1,-3.8475417E-2,5.895391E-1,-3.0106643E-2,5.1086354E-1,6.2829834E-1,5.8420336E-1,-4.0270474E-2,6.262855E-1,1.1747095E-2,5.7210237E-2,7.801725E-1,5.7401933E-2,-5.3313643E-2,-2.677877E-2,-5.845611E-2,1.0813295E-2,-1.9524684E-2,5.452457E-2,3.566163E-2,-8.0915205E-3],"split_indices":[5,7,7,6,8,0,8,5,7,0,6,0,5,6,8,0,8,0,0,8,0,0,0,0,0,0,0,0,0],"split_type":[0,0,0,0,0,0,0,0,0,0,0,0,0,0,0,0,0,0,0,0,0,0,0,0,0,0,0,0,0],"sum_hessian":[7.808506E2,4.7905392E2,3.0179663E2,4.3036722E2,4.8686714E1,2.244145E0,2.995525E2,4.1532498E2,1.504223E1,1.5693756E0,4.7117336E1,2.0066109E0,2.9754587E2,3.9718698E2,1.813802E1,1.3918018E0,1.3650428E1,1.7161366E0,4.54012E1,2.8722892E0,2.9467358E2,3.6696246E2,3.0224497E1,4.2352037E0,1.3902815E1,1.2181795E0,1.2432248E1,1.3608253E0,1.5114638E0],"tree_param":{"num_deleted":"0","num_feature":"9","num_nodes":"29","size_leaf_vector":"1"}},{"base_weights":[-7.4110986E-3,-8.0408955E-1,9.6473795E-1,-9.064605E-1,1.537406E-1,-5.6540202E-2,1.0201532E0,-1.0332181E0,-5.30186E-1,-5.5772223E-2,4.3441385E-1,-5.1387526E-2,1.0503231E0,-8.775951E-1,-5.6776118E-2,1.3032073E-1,-8.8186026E-1,1.1625959E0,-1.04522355E-1,6.7289066E-1,1.1219655E0,-5.6607623E-2,-5.104293E-3,-5.478053E-2,5.124387E-2,2.6022956E-2,-4.7166675E-2,1.7783707E-2,6.048562E-2,-2.894309E-2,1.9010179E-2,4.587861E-2,9.864413E-3,4.2572837E-2,5.6754228E-2],"categories":[],"categories_nodes":[],"categories_segments":[],"categories_sizes":[],"default_left":[0,0,0,0,0,0,0,0,0,0,0,0,0,0,0,0,0,0,0,0,0,0,0,0,0,0,0,0,0,0,0,0,0,0,0],"id":27,"left_children":[1,3,5,7,9,-1,11,13,15,-1,17,-1,19,21,-1,23,25,27,29,31,33,-1,-1,-1,-1,-1,-1,-1,-1,-1,-1,-1,-1,-1,-1],"loss_changes":[5.969247E2,4.1674072E1,4.14653E1,1.7711731E1,1.535916E1,0E0,2.2007507E1,3.545868E0,2.3000216E1,0E0,1.3823252E1,0E0,8.284546E0,2.3093735E1,0E0,3.96184E1,6.04438E0,1.3744926E-1,5.044288E0,6.3160152E0,2.532959E-2,0E0,0E0,0E0,0E0,0E0,0E0,0E0,0E0,0E0,0E0,0E0,0E0,0E0,0E0],"parents":[2147483647,0,0,1,1,2,2,3,3,4,4,6,6,7,7,8,8,10,10,12,12,13,13,15,15,16,16,17,17,18,18,19,19,20,20],"right_children":[2,4,6,8,10,-1,12,14,16,-1,18,-1,20,22,-1,24,26,28,30,32,34,-1,-1,-1,-1,-1,-1,-1,-1,-1,-1,-1,-1,-1,-1],"split_conditions":[6.7818236E-1,6.32883E-1,2.1439865E-1,5.9675604E-1,2.0800704E-1,-5.6540202E-2,3.8035557E-1,8.6004645E-1,8.2071745E-1,-5.5772223E-2,8.3818084E-1,-5.1387526E-2,7.3036367E-1,5.251828E-1,-5.6776118E-2,5.684041E-1,6.12915E-1,5.0892466E-1,6.312926E-1,9.323034E-1,5.960173E-1,-5.6607623E-2,-5.104293E-3,-5.478053E-2,5.124387E-2,2.6022956E-2,-4.7166675E-2,1.7783707E-2,6.048562E-2,-2.894309E-2,1.9010179E-2,4.587861E-2,9.864413E-3,4.2572837E-2,5.6754228E-2],"split_indices":[4,6,8,4,8,0,0,8,8,0,8,0,4,1,0,8,2,0,4,3,6,0,0,0,0,0,0,0,0,0,0,0,0,0,0],"split_type":[0,0,0,0,0,0,0,0,0,0,0,0,0,0,0,0,0,0,0,0,0,0,0,0,0,0,0,0,0,0,0,0,0,0,0],"sum_hessian":[7.687308E2,4.225901E2,3.461407E2,3.8183405E2,4.075603E1,8.417682E0,3.3772302E2,2.8431082E2,9.752323E1,6.8421464E0,3.3913887E1,4.4230924E0,3.3329993E2,1.16568085E2,1.6774274E2,3.410236E1,6.3420876E1,1.3932214E1,1.9981672E1,5.4830334E1,2.784696E2,8.741472E1,2.9153364E1,1.429173E1,1.981063E1,2.3498566E0,6.107102E1,1.2402593E0,1.2691955E1,1.0000881E1,9.980791E0,3.559078E1,1.9239553E1,1.5928658E1,2.6254092E2],"tree_param":{"num_deleted":"0","num_feature":"9","num_nodes":"35","size_leaf_vector":"1"}},{"base_weights":[8.108657E-3,-8.1746423E-1,9.74243E-1,-1.0180101E0,5.66295E-1,-5.930684E-2,1.0520847E0,-1.076728E0,-5.427522E-1,-9.0299916E-1,8.798333E-1,-4.9924094E-2,1.0804546E0,-1.0892698E0,3.4570584E-1,5.4006178E-2,-1.0330232E0,-5.774684E-2,2.2443445E-2,-5.3978708E-2,1.0556082E0,7.022209E-1,5.576035E-2,-5.5438336E-2,-4.5923077E-2,4.2165484E-2,-1.5180572E-2,-4.1971244E-2,7.501219E-2,2.767477E-3,-5.4749697E-2,-3.0962585E-2,5.6810834E-2,4.4797948E-3,5.4434657E-2],"categories":[],"categories_nodes":[],"categories_segments":[],"categories_sizes":[],"default_left":[0,0,0,0,0,0,0,0,0,0,0,0,0,0,0,0,0,0,0,0,0,0,0,0,0,0,0,0,0,0,0,0,0,0,0],"id":28,"left_children":[1,3,5,7,9,-1,11,13,15,17,19,-1,21,23,25,27,29,-1,-1,-1,31,33,-1,-1,-1,-1,-1,-1,-1,-1,-1,-1,-1,-1,-1],"loss_changes":[5.883451E2,1.1095639E2,5.840439E1,9.120331E0,2.4285257E1,0E0,2.0194153E1,5.880249E0,1.183412E1,3.7407503E0,1.5787697E1,0E0,3.483368E0,8.544922E-4,1.3725023E0,2.5948158E1,1.5545921E0,0E0,0E0,0E0,6.0411034E0,7.008587E0,0E0,0E0,0E0,0E0,0E0,0E0,0E0,0E0,0E0,0E0,0E0,0E0,0E0],"parents":[2147483647,0,0,1,1,2,2,3,3,4,4,6,6,7,7,8,8,9,9,10,10,12,12,13,13,14,14,15,15,16,16,20,20,21,21],"right_children":[2,4,6,8,10,-1,12,14,16,18,20,-1,22,24,26,28,30,-1,-1,-1,32,34,-1,-1,-1,-1,-1,-1,-1,-1,-1,-1,-1,-1,-1],"split_conditions":[6.7818236E-1,4.7781995E-1,3.2068914E-1,4.2501095E-1,4.7722557E-1,-5.930684E-2,3.71166E-1,7.067384E-1,7.10715E-1,5.650232E-1,3.635673E-1,-4.9924094E-2,7.0952165E-1,5.9440523E-1,5.9675604E-1,5.5070484E-1,4.2684639E-1,-5.774684E-2,2.2443445E-2,-5.3978708E-2,3.9881474E-1,5.0239134E-1,5.576035E-2,-5.5438336E-2,-4.5923077E-2,4.2165484E-2,-1.5180572E-2,-4.1971244E-2,7.501219E-2,2.767477E-3,-5.4749697E-2,-3.0962585E-2,5.6810834E-2,4.4797948E-3,5.4434657E-2],"split_indices":[4,5,7,5,0,0,0,6,1,5,7,0,4,6,4,0,6,0,0,0,1,5,0,0,0,0,0,0,0,0,0,0,0,0,0],"split_type":[0,0,0,0,0,0,0,0,0,0,0,0,0,0,0,0,0,0,0,0,0,0,0,0,0,0,0,0,0,0,0,0,0,0,0],"sum_hessian":[7.356326E2,3.967549E2,3.3887775E2,3.467634E2,4.9991528E1,1.12904415E1,3.2758728E2,3.0750568E2,3.9257706E1,8.46114E0,4.1530388E1,4.0037346E0,3.2358356E2,3.0505023E2,2.4554455E0,1.8107311E1,2.1150393E1,7.2547917E0,1.2063481E0,2.9956226E0,3.8534763E1,2.9013739E1,2.9456982E2,2.6886887E2,3.618137E1,1.2209828E0,1.2344629E0,1.1452172E1,6.65514E0,1.1451595E0,2.0005234E1,1.4626206E0,3.7072144E1,1.1699635E1,1.7314104E1],"tree_param":{"num_deleted":"0","num_feature":"9","num_nodes":"35","size_leaf_vector":"1"}},{"base_weights":[-2.3533667E-3,-7.839558E-1,9.6554774E-1,-9.8131895E-1,8.4163177E-1,-5.6020636E-2,1.0237719E0,-1.0547143E0,-5.5986875E-1,-6.2081623E-1,1.0150893E0,-4.6081837E-2,1.0449805E0,-1.0637717E0,1.7686522E-1,4.2011376E-2,-1.0331477E0,-5.2460965E-2,2.1922633E-2,-1.8275099E-2,1.0742664E0,4.4802657E-1,1.0777054E0,-5.39649E-2,-3.3984356E-2,2.2651494E-2,-9.518452E-3,-5.842891E-2,6.3294776E-2,-5.5234194E-2,2.3031414E-2,1.0924746E-2,5.5492073E-2,-6.48029E-3,5.09001E-2,4.3867614E-2,5.6392986E-2],"categories":[],"categories_nodes":[],"categories_segments":[],"categories_sizes":[],"default_left":[0,0,0,0,0,0,0,0,0,0,0,0,0,0,0,0,0,0,0,0,0,0,0,0,0,0,0,0,0,0,0,0,0,0,0,0,0],"id":29,"left_children":[1,3,5,7,9,-1,11,13,15,17,19,-1,21,23,25,27,29,-1,-1,-1,31,33,35,-1,-1,-1,-1,-1,-1,-1,-1,-1,-1,-1,-1,-1,-1],"loss_changes":[5.364385E2,1.2668765E2,3.962262E1,1.0244812E1,1.1540861E1,0E0,1.3700378E1,3.5033875E0,1.5450218E1,2.811145E0,3.5650291E0,0E0,5.4920654E0,1.0266724E0,3.932513E-1,3.817804E1,3.7484665E0,0E0,0E0,0E0,8.9878464E-1,5.928767E0,1.9169922E0,0E0,0E0,0E0,0E0,0E0,0E0,0E0,0E0,0E0,0E0,0E0,0E0,0E0,0E0],"parents":[2147483647,0,0,1,1,2,2,3,3,4,4,6,6,7,7,8,8,9,9,10,10,12,12,13,13,14,14,15,15,16,16,20,20,21,21,22,22],"right_children":[2,4,6,8,10,-1,12,14,16,18,20,-1,22,24,26,28,30,-1,-1,-1,32,34,36,-1,-1,-1,-1,-1,-1,-1,-1,-1,-1,-1,-1,-1,-1],"split_conditions":[6.8374103E-1,5.0239134E-1,4.724103E-1,4.2258087E-1,4.6616283E-1,-5.6020636E-2,3.8035557E-1,7.067384E-1,8.30681E-1,5.650232E-1,5.1525736E-1,-4.6081837E-2,7.021505E-1,6.5952945E-1,7.2169423E-1,5.960417E-1,6.825983E-1,-5.2460965E-2,2.1922633E-2,-1.8275099E-2,4.250802E-1,5.2689445E-1,4.5732492E-1,-5.39649E-2,-3.3984356E-2,2.2651494E-2,-9.518452E-3,-5.842891E-2,6.3294776E-2,-5.5234194E-2,2.3031414E-2,1.0924746E-2,5.5492073E-2,-6.48029E-3,5.09001E-2,4.3867614E-2,5.6392986E-2],"split_indices":[4,5,8,5,0,0,0,6,8,5,8,0,4,4,6,8,6,0,0,0,4,5,5,0,0,0,0,0,0,0,0,0,0,0,0,0,0],"split_type":[0,0,0,0,0,0,0,0,0,0,0,0,0,0,0,0,0,0,0,0,0,0,0,0,0,0,0,0,0,0,0,0,0,0,0,0,0],"sum_hessian":[7.0709216E2,3.9129913E2,3.15793E2,3.4928824E2,4.2010876E1,8.079809E0,3.077132E2,2.9620215E2,5.308609E1,4.181012E0,3.7829865E1,2.8606098E0,3.048526E2,2.94175E2,2.0271854E0,2.3769316E1,2.9316772E1,2.9837663E0,1.1972456E0,1.342119E0,3.6487747E1,1.6606897E1,2.882457E2,2.810055E2,1.3169488E1,1.0237138E0,1.0034717E0,1.1972278E1,1.1797039E1,2.8225544E1,1.0912297E0,1.741322E0,3.474642E1,8.631776E0,7.975121E0,6.1412544E1,2.2683315E2],"tree_param":{"num_deleted":"0","num_feature":"9","num_nodes":"37","size_leaf_vector":"1"}},{"base_weights":[-2.2402579E-2,-8.318523E-1,9.2581654E-1,-9.854015E-1,7.006075E-1,-5.9115734E-2,1.0164818E0,-1.0181563E0,-1.6030578E-1,-8.063005E-1,9.2037845E-1,-5.6597423E-2,1.0909209E0,-8.440354E-1,-5.6762815E-2,-7.972536E-1,3.153112E-1,-5.1262017E-2,1.1389846E-3,-5.6387424E-1,1.0836918E0,-4.9199335E-2,1.1238209E0,-5.685481E-2,-1.5761092E-2,6.472867E-3,-5.2038796E-2,-3.9356712E-2,3.453464E-2,-4.4003613E-2,-2.3203692E-4,-1.3582415E-2,5.7523996E-2,-3.685457E-2,5.6682494E-2],"categories":[],"categories_nodes":[],"categories_segments":[],"categories_sizes":[],"default_left":[0,0,0,0,0,0,0,0,0,0,0,0,0,0,0,0,0,0,0,0,0,0,0,0,0,0,0,0,0,0,0,0,0,0,0],"id":30,"left_children":[1,3,5,7,9,-1,11,13,15,17,19,-1,21,23,-1,25,27,-1,-1,29,31,-1,33,-1,-1,-1,-1,-1,-1,-1,-1,-1,-1,-1,-1],"loss_changes":[5.278376E2,8.7986115E1,6.173706E1,8.961029E0,1.2124907E1,0E0,4.988382E1,5.6589355E0,4.5161476E0,9.1420484E-1,7.995308E0,0E0,2.1210876E1,2.0469261E1,0E0,1.5568476E0,4.175578E0,0E0,0E0,6.461836E-1,2.8277168E0,0E0,6.1469727E0,0E0,0E0,0E0,0E0,0E0,0E0,0E0,0E0,0E0,0E0,0E0,0E0],"parents":[2147483647,0,0,1,1,2,2,3,3,4,4,6,6,7,7,8,8,9,9,10,10,12,12,13,13,15,15,16,16,19,19,20,20,22,22],"right_children":[2,4,6,8,10,-1,12,14,16,18,20,-1,22,24,-1,26,28,-1,-1,30,32,-1,34,-1,-1,-1,-1,-1,-1,-1,-1,-1,-1,-1,-1],"split_conditions":[6.7150277E-1,5.0239134E-1,3.8922387E-1,6.55953E-1,4.6616283E-1,-5.9115734E-2,4.724103E-1,8.6004645E-1,3.9488003E-1,5.5717844E-1,4.7052348E-1,-5.6597423E-2,3.8035557E-1,5.8420336E-1,-5.6762815E-2,6.607687E-1,3.2068914E-1,-5.1262017E-2,1.1389846E-3,3.635673E-1,5.960417E-1,-4.9199335E-2,1.7548251E-1,-5.685481E-2,-1.5761092E-2,6.472867E-3,-5.2038796E-2,-3.9356712E-2,3.453464E-2,-4.4003613E-2,-2.3203692E-4,-1.3582415E-2,5.7523996E-2,-3.685457E-2,5.6682494E-2],"split_indices":[4,5,7,6,0,0,8,8,5,5,7,0,0,8,0,6,7,0,0,7,8,0,5,0,0,0,0,0,0,0,0,0,0,0,0],"split_type":[0,0,0,0,0,0,0,0,0,0,0,0,0,0,0,0,0,0,0,0,0,0,0,0,0,0,0,0,0,0,0,0,0,0,0],"sum_hessian":[6.8570087E2,3.6998495E2,3.157159E2,3.3661392E2,3.3371014E1,1.2521772E1,3.0319415E2,3.2353616E2,1.3077767E1,3.9077613E0,2.9463253E1,9.67758E0,2.9351657E2,1.3339436E2,1.9014182E2,5.301598E0,7.7761693E0,2.9042265E0,1.0035348E0,2.677393E0,2.678586E1,4.130175E0,2.8938638E2,8.5089E1,4.830536E1,1.2007198E0,4.1008782E0,1.6965978E0,6.0795717E0,1.3438507E0,1.3335422E0,1.113907E0,2.5671953E1,1.1316775E0,2.882547E2],"tree_param":{"num_deleted":"0","num_feature":"9","num_nodes":"35","size_leaf_vector":"1"}},{"base_weights":[5.5378703E-3,-7.6152694E-1,9.8045486E-1,-9.988153E-1,5.075909E-1,-5.767067E-2,1.0557222E0,-1.0425693E0,-6.3085866E-1,-9.0628093E-1,7.7540255E-1,-4.2499162E-2,1.074741E0,-1.05275E0,-4.023516E-1,-5.465103E-2,-2.1451175E-1,-5.3814974E-2,1.3096954E-2,-5.341288E-2,9.516066E-1,1.036748E-3,1.0789245E0,-4.702316E-2,-5.6234807E-2,-4.539435E-2,4.7394525E-2,3.239676E-2,-4.874926E-2,-2.9945094E-2,5.069427E-2,4.7069784E-2,5.5666685E-2],"categories":[],"categories_nodes":[],"categories_segments":[],"categories_sizes":[],"default_left":[0,0,0,0,0,0,0,0,0,0,0,0,0,0,0,0,0,0,0,0,0,0,0,0,0,0,0,0,0,0,0,0,0],"id":31,"left_children":[1,3,5,7,9,-1,11,13,15,17,19,-1,21,23,25,-1,27,-1,-1,-1,29,-1,31,-1,-1,-1,-1,-1,-1,-1,-1,-1,-1],"loss_changes":[4.974483E2,1.1261984E2,4.8262024E1,4.397217E0,2.3158802E1,0E0,1.1186981E1,1.3954468E0,6.6734276E0,2.2493649E0,1.7389462E1,0E0,1.217102E0,1.1565552E0,4.9473367E0,0E0,1.3834586E1,0E0,0E0,0E0,5.100525E0,0E0,2.7676392E-1,0E0,0E0,0E0,0E0,0E0,0E0,0E0,0E0,0E0,0E0],"parents":[2147483647,0,0,1,1,2,2,3,3,4,4,6,6,7,7,8,8,9,9,10,10,12,12,13,13,14,14,16,16,20,20,22,22],"right_children":[2,4,6,8,10,-1,12,14,16,18,20,-1,22,24,26,-1,28,-1,-1,-1,30,-1,32,-1,-1,-1,-1,-1,-1,-1,-1,-1,-1],"split_conditions":[6.903604E-1,4.6676153E-1,3.8922387E-1,4.2258087E-1,4.7722557E-1,-5.767067E-2,3.71166E-1,9.00614E-1,5.000908E-1,5.5212784E-1,3.635673E-1,-4.2499162E-2,4.7432402E-1,6.9966036E-1,8.0654156E-1,-5.465103E-2,7.2792554E-1,-5.3814974E-2,1.3096954E-2,-5.341288E-2,3.9881474E-1,1.036748E-3,4.7215885E-1,-4.702316E-2,-5.6234807E-2,-4.539435E-2,4.7394525E-2,3.239676E-2,-4.874926E-2,-2.9945094E-2,5.069427E-2,4.7069784E-2,5.5666685E-2],"split_indices":[4,5,7,5,0,0,0,0,0,5,7,0,1,0,7,0,1,0,0,0,1,0,5,0,0,0,0,0,0,0,0,0,0],"split_type":[0,0,0,0,0,0,0,0,0,0,0,0,0,0,0,0,0,0,0,0,0,0,0,0,0,0,0,0,0,0,0,0,0],"sum_hessian":[6.6319543E2,3.7128625E2,2.9190918E2,3.1298087E2,5.83054E1,9.457583E0,2.824516E2,2.7808072E2,3.4900143E1,8.905599E0,4.9399803E1,2.3592632E0,2.8009235E2,2.7309363E2,4.9870915E0,1.5769782E1,1.9130362E1,7.842861E0,1.0627371E0,3.8677807E0,4.553202E1,1.1308903E0,2.7896146E2,1.1214311E2,1.6095052E2,3.8669162E0,1.1201754E0,9.033511E0,1.0096849E1,1.4255172E0,4.4106503E1,6.1502525E1,2.1745894E2],"tree_param":{"num_deleted":"0","num_feature":"9","num_nodes":"33","size_leaf_vector":"1"}},{"base_weights":[7.088007E-4,-7.729032E-1,9.538087E-1,-8.5288805E-1,4.185807E-1,-5.6875017E-2,1.0323488E0,-9.6700174E-1,-4.844221E-1,-4.791655E-2,7.1138996E-1,-5.3935837E-2,1.0883428E0,-1.018925E0,-5.791122E-1,2.0790586E-2,-7.7475995E-1,-4.1540418E-2,9.1786206E-1,-4.2718273E-2,1.1088296E0,-4.5291875E-2,-5.495612E-2,3.3062831E-3,-5.3895988E-2,-4.892578E-2,5.7369925E-2,-4.6306767E-2,1.4134275E-2,-9.948536E-3,5.3032648E-2,-1.4697141E-2,5.581668E-2],"categories":[],"categories_nodes":[],"categories_segments":[],"categories_sizes":[],"default_left":[0,0,0,0,0,0,0,0,0,0,0,0,0,0,0,0,0,0,0,0,0,0,0,0,0,0,0,0,0,0,0,0,0],"id":32,"left_children":[1,3,5,7,9,-1,11,13,15,-1,17,-1,19,21,23,25,27,-1,29,-1,31,-1,-1,-1,-1,-1,-1,-1,-1,-1,-1,-1,-1],"loss_changes":[4.6648218E2,3.3637436E1,4.7731323E1,1.3305145E1,9.809172E0,0E0,3.352899E1,4.4271393E0,1.1672129E1,0E0,6.889902E0,0E0,1.1579468E1,9.8498535E-1,1.0282329E1,3.486889E1,8.343769E0,0E0,2.9932003E0,0E0,3.115387E0,0E0,0E0,0E0,0E0,0E0,0E0,0E0,0E0,0E0,0E0,0E0,0E0],"parents":[2147483647,0,0,1,1,2,2,3,3,4,4,6,6,7,7,8,8,10,10,12,12,13,13,14,14,15,15,16,16,18,18,20,20],"right_children":[2,4,6,8,10,-1,12,14,16,-1,18,-1,20,22,24,26,28,-1,30,-1,32,-1,-1,-1,-1,-1,-1,-1,-1,-1,-1,-1,-1],"split_conditions":[6.8374103E-1,6.629215E-1,3.8922387E-1,6.0722584E-1,3.2933858E-1,-5.6875017E-2,4.724103E-1,5.790077E-1,8.1678396E-1,-4.791655E-2,2.0800704E-1,-5.3935837E-2,3.8035557E-1,8.6004645E-1,8.9116955E-1,5.8420336E-1,8.167988E-1,-4.1540418E-2,7.2790986E-1,-4.2718273E-2,4.1513786E-1,-4.5291875E-2,-5.495612E-2,3.3062831E-3,-5.3895988E-2,-4.892578E-2,5.7369925E-2,-4.6306767E-2,1.4134275E-2,-9.948536E-3,5.3032648E-2,-1.4697141E-2,5.581668E-2],"split_indices":[4,6,7,4,7,0,8,6,8,0,8,0,0,8,8,8,7,0,3,0,1,0,0,0,0,0,0,0,0,0,0,0,0],"split_type":[0,0,0,0,0,0,0,0,0,0,0,0,0,0,0,0,0,0,0,0,0,0,0,0,0,0,0,0,0,0,0,0,0],"sum_hessian":[6.306646E2,3.4821478E2,2.8244983E2,3.2657578E2,2.1639008E1,9.7355385E0,2.727143E2,2.481114E2,7.846436E1,3.3961241E0,1.8242882E1,6.574642E0,2.6613965E2,2.1738524E2,3.0726164E1,2.8974556E1,4.9489803E1,1.7969708E0,1.6445911E1,2.3525324E0,2.637871E2,9.529864E1,1.220866E2,1.3774912E1,1.6951252E1,1.542445E1,1.3550106E1,4.340104E1,6.0887647E0,1.8197082E0,1.4626204E1,1.2004933E0,2.6258664E2],"tree_param":{"num_deleted":"0","num_feature":"9","num_nodes":"33","size_leaf_vector":"1"}},{"base_weights":[4.665622E-3,-7.658397E-1,9.027112E-1,-8.915473E-1,-2.2552882E-1,-5.717125E-2,9.9544984E-1,-9.972521E-1,-5.5127263E-1,4.101824E-1,-6.557624E-1,-5.2911796E-2,1.0667851E0,-5.5466246E-2,-8.86503E-1,1.3382684E-1,-9.1619813E-1,-5.5307467E-2,1.3472459E0,-8.853213E-1,2.4731055E-1,1.24474294E-1,1.0899577E0,4.5288602E-4,-4.8890393E-2,-5.1989507E-2,3.8105674E-2,9.2432955E-3,-4.862247E-2,7.3529415E-2,1.0218529E-2,5.557711E-3,-4.9282234E-2,-3.7590977E-2,4.5530718E-2,4.330124E-2,-2.1340055E-2,3.8733702E-2,5.5347662E-2],"categories":[],"categories_nodes":[],"categories_segments":[],"categories_sizes":[],"default_left":[0,0,0,0,0,0,0,0,0,0,0,0,0,0,0,0,0,0,0,0,0,0,0,0,0,0,0,0,0,0,0,0,0,0,0,0,0,0,0],"id":33,"left_children":[1,3,5,7,9,-1,11,13,15,17,19,-1,21,-1,23,25,27,-1,29,31,33,35,37,-1,-1,-1,-1,-1,-1,-1,-1,-1,-1,-1,-1,-1,-1,-1,-1],"loss_changes":[4.2450613E2,2.2226318E1,5.4895554E1,9.073135E0,1.7680714E1,0E0,4.0910828E1,1.5348206E0,1.6534925E1,3.8874283E1,8.169546E0,0E0,5.6056213E0,0E0,8.760239E0,1.8258722E1,2.8405037E0,0E0,2.0552502E0,3.1883144E0,6.3540053E0,3.4109015E0,5.168457E-1,0E0,0E0,0E0,0E0,0E0,0E0,0E0,0E0,0E0,0E0,0E0,0E0,0E0,0E0,0E0,0E0],"parents":[2147483647,0,0,1,1,2,2,3,3,4,4,6,6,7,7,8,8,9,9,10,10,12,12,14,14,15,15,16,16,18,18,19,19,20,20,21,21,22,22],"right_children":[2,4,6,8,10,-1,12,14,16,18,20,-1,22,-1,24,26,28,-1,30,32,34,36,38,-1,-1,-1,-1,-1,-1,-1,-1,-1,-1,-1,-1,-1,-1,-1,-1],"split_conditions":[6.7150277E-1,5.9302384E-1,3.4219548E-1,5.8893144E-1,8.357415E-1,-5.717125E-2,5.449936E-1,5.166977E-1,8.2468927E-1,5.1525736E-1,7.777023E-1,-5.2911796E-2,5.121654E-1,-5.5466246E-2,6.12915E-1,5.684041E-1,6.12915E-1,-5.5307467E-2,8.1138E-1,6.12915E-1,7.492716E-1,7.730426E-1,7.218321E-1,4.5288602E-4,-4.8890393E-2,-5.1989507E-2,3.8105674E-2,9.2432955E-3,-4.862247E-2,7.3529415E-2,1.0218529E-2,5.557711E-3,-4.9282234E-2,-3.7590977E-2,4.5530718E-2,4.330124E-2,-2.1340055E-2,3.8733702E-2,5.5347662E-2],"split_indices":[4,6,7,4,8,0,8,2,8,8,7,0,6,0,2,8,2,0,8,2,1,8,1,0,0,0,0,0,0,0,0,0,0,0,0,0,0,0,0],"split_type":[0,0,0,0,0,0,0,0,0,0,0,0,0,0,0,0,0,0,0,0,0,0,0,0,0,0,0,0,0,0,0,0,0,0,0,0,0,0,0],"sum_hessian":[6.114943E2,3.2919702E2,2.822973E2,2.6653537E2,6.266164E1,1.1748784E1,2.7054852E2,2.0188882E2,6.4646545E1,2.5310122E1,3.735152E1,8.617674E0,2.6193085E2,9.5863266E1,1.06025566E2,2.268734E1,4.1959206E1,9.598171E0,1.571195E1,2.979688E1,7.554639E0,6.4395604E0,2.5549129E2,9.892834E0,9.613273E1,7.682236E0,1.5005104E1,1.928294E0,4.0030914E1,1.3922637E1,1.7893137E0,2.7156224E0,2.7081259E1,2.9610229E0,4.593616E0,2.502442E0,3.9371185E0,1.5450453E1,2.4004083E2],"tree_param":{"num_deleted":"0","num_feature":"9","num_nodes":"39","size_leaf_vector":"1"}},{"base_weights":[1.4045231E-2,-7.143627E-1,9.3987745E-1,-9.5176804E-1,5.2928E-1,-5.5829335E-2,1.0195922E0,-7.1519226E-1,-1.0705998E0,-9.0966916E-1,7.964873E-1,-5.2361388E-2,1.0744216E0,-5.5199143E-2,3.359119E-1,-5.3745747E-2,-9.760833E-3,-5.3001232E-2,2.3788917E-3,-5.2037388E-2,9.9665576E-1,-4.1650504E-2,1.0965096E0,-4.8329987E-2,6.2235277E-2,-4.8167627E-2,5.790607E-2,1.3139485E-3,5.5073448E-2],"categories":[],"categories_nodes":[],"categories_segments":[],"categories_sizes":[],"default_left":[0,0,0,0,0,0,0,0,0,0,0,0,0,0,0,0,0,0,0,0,0,0,0,0,0,0,0,0,0],"id":34,"left_children":[1,3,5,7,9,-1,11,13,15,17,19,-1,21,-1,23,-1,-1,-1,-1,-1,25,-1,27,-1,-1,-1,-1,-1,-1],"loss_changes":[3.93481E2,9.692023E1,4.3253952E1,6.953308E0,2.1098684E1,0E0,2.9211761E1,3.911853E1,4.7296143E-1,1.312047E0,1.766846E1,0E0,1.1106384E1,0E0,3.2415836E1,0E0,0E0,0E0,0E0,0E0,1.4183239E1,0E0,1.2427368E0,0E0,0E0,0E0,0E0,0E0,0E0],"parents":[2147483647,0,0,1,1,2,2,3,3,4,4,6,6,7,7,8,8,9,9,10,10,12,12,14,14,20,20,22,22],"right_children":[2,4,6,8,10,-1,12,14,16,18,20,-1,22,-1,24,-1,-1,-1,-1,-1,26,-1,28,-1,-1,-1,-1,-1,-1],"split_conditions":[6.8374103E-1,4.6676153E-1,3.8922387E-1,8.2071745E-1,4.7722557E-1,-5.5829335E-2,4.724103E-1,5.5778176E-1,8.632524E-1,5.5212784E-1,3.5227346E-1,-5.2361388E-2,3.627328E-1,-5.5199143E-2,5.251828E-1,-5.3745747E-2,-9.760833E-3,-5.3001232E-2,2.3788917E-3,-5.2037388E-2,5.449936E-1,-4.1650504E-2,4.1513786E-1,-4.8329987E-2,6.2235277E-2,-4.8167627E-2,5.790607E-2,1.3139485E-3,5.5073448E-2],"split_indices":[4,5,7,8,0,0,8,8,7,5,7,0,0,0,1,0,0,0,0,0,8,0,1,0,0,0,0,0,0],"split_type":[0,0,0,0,0,0,0,0,0,0,0,0,0,0,0,0,0,0,0,0,0,0,0,0,0,0,0,0,0],"sum_hessian":[5.814721E2,3.255616E2,2.559105E2,2.7357263E2,5.1988995E1,9.064298E0,2.468462E2,9.381658E1,1.7975604E2,7.765628E0,4.4223366E1,5.911469E0,2.4093474E2,6.844814E1,2.536844E1,1.7864746E2,1.1085773E0,6.6186614E0,1.1469662E0,3.9322338E0,4.0291134E1,2.3377962E0,2.3859695E2,1.0399682E1,1.4968759E1,2.6885748E0,3.760256E1,1.1295846E0,2.3746736E2],"tree_param":{"num_deleted":"0","num_feature":"9","num_nodes":"29","size_leaf_vector":"1"}},{"base_weights":[5.5881958E-3,-6.487854E-1,1.0147862E0,-8.321777E-1,9.5208836E-1,-7.517088E-1,1.058077E0,-8.972846E-1,4.7959304E-1,-2.8418824E-2,1.0421324E0,-4.964309E-2,5.824653E-3,-4.1911624E-2,1.07703E0,-9.753997E-1,-4.804442E-1,-3.839968E-2,6.764795E-1,5.3144336E-2,1.4430796E-2,-1.4917326E-2,1.0865561E0,-5.013908E-2,-2.5845332E-2,-5.413569E-2,-4.766514E-3,2.191221E-3,4.4271883E-2,1.3656658E-2,5.4514457E-2],"categories":[],"categories_nodes":[],"categories_segments":[],"categories_sizes":[],"default_left":[0,0,0,0,0,0,0,0,0,0,0,0,0,0,0,0,0,0,0,0,0,0,0,0,0,0,0,0,0,0,0],"id":35,"left_children":[1,3,5,7,9,11,13,15,17,-1,19,-1,-1,-1,21,23,25,-1,27,-1,-1,-1,29,-1,-1,-1,-1,-1,-1,-1,-1],"loss_changes":[3.7682315E2,1.02420715E2,1.7959564E1,2.700113E1,5.5273056E0,1.362148E0,8.791565E0,9.194046E0,4.293192E0,0E0,2.309494E-1,0E0,0E0,0E0,3.177246E0,2.6070557E0,1.1216654E1,0E0,1.7856207E0,0E0,0E0,0E0,3.5954285E-1,0E0,0E0,0E0,0E0,0E0,0E0,0E0,0E0],"parents":[2147483647,0,0,1,1,2,2,3,3,4,4,5,5,6,6,7,7,8,8,10,10,14,14,15,15,16,16,18,18,22,22],"right_children":[2,4,6,8,10,12,14,16,18,-1,20,-1,-1,-1,22,24,26,-1,28,-1,-1,-1,30,-1,-1,-1,-1,-1,-1,-1,-1],"split_conditions":[4.884531E-1,8.607944E-1,4.7722557E-1,6.741424E-1,7.203943E-1,7.562209E-1,3.635673E-1,4.2035338E-1,2.8863496E-1,-2.8418824E-2,4.0727988E-1,-4.964309E-2,5.824653E-3,-4.1911624E-2,4.1513786E-1,6.2829834E-1,5.0892466E-1,-3.839968E-2,6.899534E-1,5.3144336E-2,1.4430796E-2,-1.4917326E-2,4.4997773E-1,-5.013908E-2,-2.5845332E-2,-5.413569E-2,-4.766514E-3,2.191221E-3,4.4271883E-2,1.3656658E-2,5.4514457E-2],"split_indices":[5,7,0,6,0,2,7,5,7,0,5,0,0,0,1,6,0,0,6,0,0,0,7,0,0,0,0,0,0,0,0],"split_type":[0,0,0,0,0,0,0,0,0,0,0,0,0,0,0,0,0,0,0,0,0,0,0,0,0,0,0,0,0,0,0],"sum_hessian":[5.686079E2,3.4516E2,2.2344789E2,3.101142E2,3.504578E1,4.953526E0,2.1849437E2,2.9575122E2,1.4363001E1,1.6624119E0,3.3383366E1,3.7643507E0,1.1891754E0,1.734401E0,2.1675996E2,2.4794655E2,4.7804657E1,1.5623507E0,1.2800651E1,3.208896E1,1.2944071E0,1.2824366E0,2.1547752E2,2.3285304E2,1.5093504E1,1.7938965E1,2.9865692E1,3.4785366E0,9.322114E0,1.3232014E0,2.1415433E2],"tree_param":{"num_deleted":"0","num_feature":"9","num_nodes":"31","size_leaf_vector":"1"}},{"base_weights":[9.295766E-3,-6.2105256E-1,1.0309108E0,-8.001497E-1,9.379024E-1,-4.6958938E-1,1.056492E0,-8.6072326E-1,6.932186E-1,-3.2332797E-2,1.0129771E0,-3.9883252E-2,1.2859817E-2,-3.958775E-2,1.0703248E0,-9.596673E-1,-4.237368E-1,-3.2401893E-2,8.7884825E-1,-7.0111603E-3,5.2854605E-2,4.6778315E-1,5.3845264E-2,-4.9993932E-2,-9.860321E-3,3.3397607E-3,-4.2948794E-2,-1.8021828E-2,5.1903244E-2,3.536692E-2,5.5488735E-4],"categories":[],"categories_nodes":[],"categories_segments":[],"categories_sizes":[],"default_left":[0,0,0,0,0,0,0,0,0,0,0,0,0,0,0,0,0,0,0,0,0,0,0,0,0,0,0,0,0,0,0],"id":36,"left_children":[1,3,5,7,9,11,13,15,17,-1,19,-1,-1,-1,21,23,25,-1,27,-1,-1,29,-1,-1,-1,-1,-1,-1,-1,-1,-1],"loss_changes":[3.5134244E2,9.4957596E1,8.486923E0,2.8022247E1,4.845894E0,1.2022914E0,6.0884857E0,1.22104645E1,3.6499143E0,0E0,1.8791924E0,0E0,0E0,0E0,3.0470276E-1,7.0736237E0,1.1941825E1,0E0,2.6023235E0,0E0,0E0,4.2655134E-1,0E0,0E0,0E0,0E0,0E0,0E0,0E0,0E0,0E0],"parents":[2147483647,0,0,1,1,2,2,3,3,4,4,5,5,6,6,7,7,8,8,10,10,14,14,15,15,16,16,18,18,21,21],"right_children":[2,4,6,8,10,12,14,16,18,-1,20,-1,-1,-1,22,24,26,-1,28,-1,-1,30,-1,-1,-1,-1,-1,-1,-1,-1,-1],"split_conditions":[5.0239134E-1,8.607944E-1,4.8235852E-1,6.8592453E-1,1.6813418E-1,5.650232E-1,4.724103E-1,4.2035338E-1,2.6660562E-1,-3.2332797E-2,6.8874973E-1,-3.9883252E-2,1.2859817E-2,-3.958775E-2,5.1086354E-1,6.423991E-1,8.30681E-1,-3.2401893E-2,6.262855E-1,-7.0111603E-3,5.2854605E-2,7.801725E-1,5.3845264E-2,-4.9993932E-2,-9.860321E-3,3.3397607E-3,-4.2948794E-2,-1.8021828E-2,5.1903244E-2,3.536692E-2,5.5488735E-4],"split_indices":[5,7,7,6,8,5,8,5,7,0,1,0,0,0,5,6,8,0,8,0,0,8,0,0,0,0,0,0,0,0,0],"split_type":[0,0,0,0,0,0,0,0,0,0,0,0,0,0,0,0,0,0,0,0,0,0,0,0,0,0,0,0,0,0,0],"sum_hessian":[5.435911E2,3.3641272E2,2.0717844E2,3.0218372E2,3.4228977E1,3.1819003E0,2.0399654E2,2.9081155E2,1.1372176E1,1.2039703E0,3.302501E1,2.125095E0,1.0568053E0,1.0976607E0,2.0289888E2,2.3614635E2,5.4665207E1,1.0797169E0,1.02924595E1,1.1365324E0,3.1888475E1,2.97071E0,1.9992818E2,2.2402037E2,1.2125971E1,2.6098114E1,2.8567095E1,1.0278928E0,9.264566E0,1.5885699E0,1.38214E0],"tree_param":{"num_deleted":"0","num_feature":"9","num_nodes":"31","size_leaf_vector":"1"}},{"base_weights":[-5.3781616E-3,-7.1783507E-1,8.967172E-1,-9.110106E-1,5.4279506E-1,-5.435964E-2,9.869284E-1,-9.991993E-1,-3.8370505E-1,-8.632595E-1,8.039501E-1,-4.480933E-2,1.017284E0,-1.0137696E0,2.9709658E-1,-5.279612E-2,6.339767E-2,-5.014382E-2,-3.5164636E-3,-7.0727986E-1,9.9272186E-1,6.6973937E-1,5.2719444E-2,-5.2036908E-2,-2.4786064E-2,3.64008E-2,-1.3931121E-2,4.8962068E-2,-4.587366E-2,-4.3325625E-2,-4.751918E-3,-3.3036058E-3,5.177824E-2,5.7997694E-3,5.1390804E-2],"categories":[],"categories_nodes":[],"categories_segments":[],"categories_sizes":[],"default_left":[0,0,0,0,0,0,0,0,0,0,0,0,0,0,0,0,0,0,0,0,0,0,0,0,0,0,0,0,0,0,0,0,0,0,0],"id":37,"left_children":[1,3,5,7,9,-1,11,13,15,17,19,-1,21,23,25,-1,27,-1,-1,29,31,33,-1,-1,-1,-1,-1,-1,-1,-1,-1,-1,-1,-1,-1],"loss_changes":[3.3550604E2,7.1521454E1,4.230011E1,1.1394836E1,1.5154929E1,0E0,1.3536835E1,4.387848E0,1.1462004E1,6.657829E-1,1.0324751E1,0E0,2.102829E0,2.4765167E0,9.913427E-1,0E0,2.2200338E1,0E0,0E0,3.3972454E-1,1.4474792E0,4.5907116E0,0E0,0E0,0E0,0E0,0E0,0E0,0E0,0E0,0E0,0E0,0E0,0E0,0E0],"parents":[2147483647,0,0,1,1,2,2,3,3,4,4,6,6,7,7,8,8,9,9,10,10,12,12,13,13,14,14,16,16,19,19,20,20,21,21],"right_children":[2,4,6,8,10,-1,12,14,16,18,20,-1,22,24,26,-1,28,-1,-1,30,32,34,-1,-1,-1,-1,-1,-1,-1,-1,-1,-1,-1,-1,-1],"split_conditions":[6.7818236E-1,4.8348093E-1,3.8922387E-1,4.2258087E-1,4.7722557E-1,-5.435964E-2,3.8035557E-1,7.067384E-1,5.000908E-1,5.464746E-1,4.7052348E-1,-4.480933E-2,7.0952165E-1,6.5239775E-1,5.9675604E-1,-5.279612E-2,7.2792554E-1,-5.014382E-2,-3.5164636E-3,5.9302384E-1,4.1513786E-1,4.9465293E-1,5.2719444E-2,-5.2036908E-2,-2.4786064E-2,3.64008E-2,-1.3931121E-2,4.8962068E-2,-4.587366E-2,-4.3325625E-2,-4.751918E-3,-3.3036058E-3,5.177824E-2,5.7997694E-3,5.1390804E-2],"split_indices":[4,5,7,5,0,0,0,6,0,5,7,0,4,4,4,0,1,0,0,6,1,5,0,0,0,0,0,0,0,0,0,0,0,0,0],"split_type":[0,0,0,0,0,0,0,0,0,0,0,0,0,0,0,0,0,0,0,0,0,0,0,0,0,0,0,0,0,0,0,0,0,0,0],"sum_hessian":[5.2002106E2,2.9066437E2,2.2935667E2,2.5228261E2,3.8381767E1,9.494893E0,2.1986179E2,2.153686E2,3.6914E1,5.6510506E0,3.2730717E1,3.0354295E0,2.1682635E2,2.131903E2,2.1783059E0,1.4201058E1,2.2712942E1,4.5798674E0,1.0711831E0,3.329484E0,2.9401232E1,2.275361E1,1.9407274E2,2.016822E2,1.1508097E1,1.0945293E0,1.0837767E0,1.1746677E1,1.0966266E1,2.312686E0,1.016798E0,1.122335E0,2.8278896E1,9.455379E0,1.3298231E1],"tree_param":{"num_deleted":"0","num_feature":"9","num_nodes":"35","size_leaf_vector":"1"}},{"base_weights":[-9.966272E-3,-6.9368696E-1,8.9670825E-1,-7.9069597E-1,2.1230608E-1,-5.310289E-2,9.761203E-1,-9.235691E-1,-3.653761E-1,-5.02036E-2,4.723306E-1,-5.2283444E-2,1.0463616E0,-7.8384995E-1,-1.0606773E0,1.0224974E0,-5.034949E-1,-4.684067E-2,7.999562E-1,-4.1290782E-2,1.0729009E0,-5.255247E-2,-1.4764778E-2,-5.3279668E-2,-1.5416163E-2,-1.0118657E-2,7.444709E-2,-5.312096E-2,-1.3555623E-2,-3.7805673E-2,4.8988577E-2,-8.199765E-3,5.411314E-2],"categories":[],"categories_nodes":[],"categories_segments":[],"categories_sizes":[],"default_left":[0,0,0,0,0,0,0,0,0,0,0,0,0,0,0,0,0,0,0,0,0,0,0,0,0,0,0,0,0,0,0,0,0],"id":38,"left_children":[1,3,5,7,9,-1,11,13,15,-1,17,-1,19,21,23,25,27,-1,29,-1,31,-1,-1,-1,-1,-1,-1,-1,-1,-1,-1,-1,-1],"loss_changes":[3.1194965E2,2.5380905E1,3.468837E1,1.4318665E1,9.499287E0,0E0,3.0694244E1,2.9414978E0,1.266571E1,0E0,1.1916709E1,0E0,1.0919373E1,1.2923641E1,2.8633118E-2,3.7677312E0,7.2868805E0,0E0,6.383156E0,0E0,2.4881897E0,0E0,0E0,0E0,0E0,0E0,0E0,0E0,0E0,0E0,0E0,0E0,0E0],"parents":[2147483647,0,0,1,1,2,2,3,3,4,4,6,6,7,7,8,8,10,10,12,12,13,13,14,14,15,15,16,16,18,18,20,20],"right_children":[2,4,6,8,10,-1,12,14,16,-1,18,-1,20,22,24,26,28,-1,30,-1,32,-1,-1,-1,-1,-1,-1,-1,-1,-1,-1,-1,-1],"split_conditions":[6.8374103E-1,6.423991E-1,3.8922387E-1,6.0722584E-1,5.1525736E-1,-5.310289E-2,4.724103E-1,8.9116955E-1,7.988635E-1,-5.02036E-2,3.2933858E-1,-5.2283444E-2,3.71166E-1,5.251828E-1,8.5043037E-1,5.586327E-1,4.1328615E-1,-4.684067E-2,4.0307194E-1,-4.1290782E-2,4.1513786E-1,-5.255247E-2,-1.4764778E-2,-5.3279668E-2,-1.5416163E-2,-1.0118657E-2,7.444709E-2,-5.312096E-2,-1.3555623E-2,-3.7805673E-2,4.8988577E-2,-8.199765E-3,5.411314E-2],"split_indices":[4,6,7,4,8,0,8,8,3,0,7,0,0,1,7,1,0,0,0,0,1,0,0,0,0,0,0,0,0,0,0,0,0],"split_type":[0,0,0,0,0,0,0,0,0,0,0,0,0,0,0,0,0,0,0,0,0,0,0,0,0,0,0,0,0,0,0,0,0],"sum_hessian":[5.012125E2,2.858721E2,2.1534042E2,2.583379E2,2.753421E1,7.90803E0,2.0743239E2,1.9595013E2,6.2387745E1,4.3453746E0,2.3188835E1,6.4984145E0,2.0093398E2,1.0037786E2,9.557227E1,5.0672226E0,5.7320522E1,4.023601E0,1.9165234E1,2.3876019E0,1.9854637E2,6.414464E1,3.6233227E1,9.4538185E1,1.0340875E0,1.5536126E0,3.51361E0,1.5784334E1,4.153619E1,1.6532803E0,1.7511953E1,1.3673975E0,1.9717897E2],"tree_param":{"num_deleted":"0","num_feature":"9","num_nodes":"33","size_leaf_vector":"1"}},{"base_weights":[3.1035594E-3,-7.2377735E-1,8.3117515E-1,-8.732419E-1,-1.0744784E-1,-5.407246E-2,9.42363E-1,-6.87559E-1,-1.0235504E0,4.5570186E-1,-5.930162E-1,-5.310002E-2,1.0286599E0,-5.383859E-2,-2.0072277E-1,-1.0394351E0,-2.3999687E-3,-5.3170748E-2,1.2353874E0,-7.965093E-1,7.257455E-1,-4.771002E-2,1.0766652E0,2.3172347E-2,-4.260375E-2,-5.304857E-2,-3.0611873E-2,-1.7298298E-2,7.189187E-2,-4.6305034E-2,1.5195978E-2,-1.4521833E-2,5.9726E-2,-7.786285E-3,5.4410692E-2],"categories":[],"categories_nodes":[],"categories_segments":[],"categories_sizes":[],"default_left":[0,0,0,0,0,0,0,0,0,0,0,0,0,0,0,0,0,0,0,0,0,0,0,0,0,0,0,0,0,0,0,0,0,0,0],"id":39,"left_children":[1,3,5,7,9,-1,11,13,15,17,19,-1,21,-1,23,25,-1,-1,27,29,31,-1,33,-1,-1,-1,-1,-1,-1,-1,-1,-1,-1,-1,-1],"loss_changes":[2.866324E2,2.326764E1,4.8358658E1,4.988785E0,1.4116772E1,0E0,3.75737E1,1.7650364E1,1.665123E0,2.9753056E1,7.9917355E0,0E0,2.032312E1,0E0,1.9049326E1,3.5188293E-1,0E0,0E0,5.725315E0,3.7624302E0,2.3553843E0,0E0,2.9930267E0,0E0,0E0,0E0,0E0,0E0,0E0,0E0,0E0,0E0,0E0,0E0,0E0],"parents":[2147483647,0,0,1,1,2,2,3,3,4,4,6,6,7,7,8,8,9,9,10,10,12,12,14,14,15,15,18,18,19,19,20,20,22,22],"right_children":[2,4,6,8,10,-1,12,14,16,18,20,-1,22,-1,24,26,-1,-1,28,30,32,-1,34,-1,-1,-1,-1,-1,-1,-1,-1,-1,-1,-1,-1],"split_conditions":[6.637059E-1,5.9302384E-1,3.8922387E-1,8.659495E-1,8.570142E-1,-5.407246E-2,4.724103E-1,4.8478988E-1,8.5043037E-1,5.1525736E-1,6.5239775E-1,-5.310002E-2,4.1328615E-1,-5.383859E-2,7.0311964E-1,5.800851E-1,-2.3999687E-3,-5.3170748E-2,4.571663E-1,8.167988E-1,6.133464E-1,-4.771002E-2,4.0655443E-1,2.3172347E-2,-4.260375E-2,-5.304857E-2,-3.0611873E-2,-1.7298298E-2,7.189187E-2,-4.6305034E-2,1.5195978E-2,-1.4521833E-2,5.9726E-2,-7.786285E-3,5.4410692E-2],"split_indices":[4,6,7,8,8,0,8,0,7,8,4,0,0,0,0,6,0,0,0,7,7,0,6,0,0,0,0,0,0,0,0,0,0,0,0],"split_type":[0,0,0,0,0,0,0,0,0,0,0,0,0,0,0,0,0,0,0,0,0,0,0,0,0,0,0,0,0,0,0,0,0,0,0],"sum_hessian":[4.7420572E2,2.5259973E2,2.21606E2,2.0296286E2,4.9636864E1,1.169557E1,2.0991043E2,9.329081E1,1.0967206E2,2.301091E1,2.6625954E1,8.197849E0,2.0171257E2,5.116998E1,4.212083E1,1.07850464E2,1.821595E0,7.681194E0,1.5329717E1,2.3409708E1,3.2162466E0,4.3218393E0,1.9739073E2,2.0998055E1,2.1122776E1,1.01261986E2,6.5884795E0,1.659366E0,1.367035E1,2.1085058E1,2.3246503E0,1.1354084E0,2.0808382E0,1.7166561E0,1.9567409E2],"tree_param":{"num_deleted":"0","num_feature":"9","num_nodes":"35","size_leaf_vector":"1"}},{"base_weights":[2.8886455E-3,-5.888717E-1,1.0129895E0,-7.5783604E-1,9.258003E-1,-6.201688E-1,1.0418017E0,-8.28206E-1,2.4590072E-1,-9.665881E-3,1.0055546E0,-4.6422263E-3,-3.934203E-2,-2.3909742E-1,1.0628797E0,-9.305393E-1,-3.5632107E-1,-4.6216868E-2,5.889114E-1,6.365818E-3,5.1765747E-2,-2.9728541E-2,1.6755305E-2,-1.4753464E-2,5.3764492E-2,-3.8134515E-2,-5.23505E-2,-5.329264E-2,1.2550157E-3,-3.7861727E-2,4.1809138E-2],"categories":[],"categories_nodes":[],"categories_segments":[],"categories_sizes":[],"default_left":[0,0,0,0,0,0,0,0,0,0,0,0,0,0,0,0,0,0,0,0,0,0,0,0,0,0,0,0,0,0,0],"id":40,"left_children":[1,3,5,7,9,11,13,15,17,-1,19,-1,-1,21,23,25,27,-1,29,-1,-1,-1,-1,-1,-1,-1,-1,-1,-1,-1,-1],"loss_changes":[2.7895044E2,7.6015366E1,8.758316E0,1.8942368E1,2.8705196E0,2.4472034E-1,4.8380737E0,1.1651245E1,7.8306265E0,0E0,6.039276E-1,0E0,0E0,9.269159E-1,3.1352997E0,3.1759033E0,1.2433336E1,0E0,5.509053E0,0E0,0E0,0E0,0E0,0E0,0E0,0E0,0E0,0E0,0E0,0E0,0E0],"parents":[2147483647,0,0,1,1,2,2,3,3,4,4,5,5,6,6,7,7,8,8,10,10,13,13,14,14,15,15,16,16,18,18],"right_children":[2,4,6,8,10,12,14,16,18,-1,20,-1,-1,22,24,26,28,-1,30,-1,-1,-1,-1,-1,-1,-1,-1,-1,-1,-1,-1],"split_conditions":[5.0239134E-1,8.607944E-1,4.2361957E-1,6.629215E-1,5.9302384E-1,8.006826E-1,4.7052348E-1,4.2501095E-1,3.2068914E-1,-9.665881E-3,8.7402326E-1,-4.6422263E-3,-3.934203E-2,9.2318904E-1,5.1525736E-1,8.642364E-1,5.0892466E-1,-4.6216868E-2,2.0800704E-1,6.365818E-3,5.1765747E-2,-2.9728541E-2,1.6755305E-2,-1.4753464E-2,5.3764492E-2,-3.8134515E-2,-5.23505E-2,-5.329264E-2,1.2550157E-3,-3.7861727E-2,4.1809138E-2],"split_indices":[5,7,0,6,6,8,7,5,7,0,8,0,0,3,8,8,0,0,8,0,0,0,0,0,0,0,0,0,0,0,0],"split_type":[0,0,0,0,0,0,0,0,0,0,0,0,0,0,0,0,0,0,0,0,0,0,0,0,0,0,0,0,0,0,0],"sum_hessian":[4.6467905E2,2.9328003E2,1.71399E2,2.6429694E2,2.8983114E1,2.6155856E0,1.6878342E2,2.4714496E2,1.7151962E1,1.8333598E0,2.7149754E1,1.0021107E0,1.6134748E0,2.565024E0,1.662184E2,2.0230171E2,4.4843246E1,3.503707E0,1.3648256E1,1.0628467E0,2.6086908E1,1.5623475E0,1.0026764E0,1.2990273E0,1.6491937E2,8.596439E1,1.1633732E2,1.5050823E1,2.9792425E1,1.797934E0,1.1850322E1],"tree_param":{"num_deleted":"0","num_feature":"9","num_nodes":"31","size_leaf_vector":"1"}},{"base_weights":[1.4058339E-2,-6.78544E-1,8.53615E-1,-8.8838E-1,4.0015444E-1,-5.213065E-2,9.390451E-1,-6.523597E-1,-1.0565705E0,-7.549037E-1,7.2221535E-1,-5.156393E-2,